#include "weights.h"

const ap_fixed<18,5> tensor_fc_out_0_weight[4][32] =
{
  {-0.12076730281114578247f, -0.15962833166122436523f, 0.00698538776487112045f, -0.06477978080511093140f, 0.00657794298604130745f, 0.00905501097440719604f, 0.00633618887513875961f, 0.00641217269003391266f, -0.02658162266016006470f, 0.00693750381469726562f, 0.00044585808063857257f, 0.00706551410257816315f, 0.06013871729373931885f, -0.10539151728153228760f, 0.00594743806868791580f, 0.00643215142190456390f, 0.00530815031379461288f, 0.00677503133192658424f, 0.00671515660360455513f, -0.01489781029522418976f, 0.00650514848530292511f, -0.16661623120307922363f, -0.09548550844192504883f, -0.03945241495966911316f, -0.11842847615480422974f, 0.00647203065454959869f, -0.06074257940053939819f, 0.00608679000288248062f, 0.00630686059594154358f, -0.10913221538066864014f, -0.02465779706835746765f, 0.00944815389811992645f},
  {0.11016118526458740234f, 0.12394699454307556152f, 0.00900352839380502701f, -0.05304866284132003784f, -0.00883843842893838882f, 0.04949789494276046753f, -0.02743895351886749268f, 0.10595643520355224609f, 0.00857181847095489502f, 0.10648801922798156738f, -0.06907822191715240479f, -0.11500439792871475220f, 0.09467161446809768677f, 0.01871716417372226715f, 0.09734785556793212891f, -0.02804020047187805176f, -0.15559417009353637695f, -0.11510822921991348267f, -0.04318728297948837280f, 0.04832331836223602295f, 0.10399058461189270020f, -0.01486890390515327454f, 0.13183510303497314453f, -0.07586475461721420288f, -0.00416843127459287643f, 0.03423826396465301514f, 0.02969602122902870178f, -0.03505630046129226685f, 0.07677134871482849121f, -0.07227973639965057373f, -0.04492069035768508911f, -0.11000376939773559570f},
  {0.03400747478008270264f, -0.00474191969260573387f, 0.06897623836994171143f, -0.02775289490818977356f, -0.05458182096481323242f, -0.11473879218101501465f, -0.11613842844963073730f, -0.03349930047988891602f, -0.10473171621561050415f, 0.07623931765556335449f, -0.08954586088657379150f, 0.03029603883624076843f, 0.13256299495697021484f, 0.16776737570762634277f, 0.08072101324796676636f, 0.09149958938360214233f, 0.04788103699684143066f, 0.01870525628328323364f, 0.12729993462562561035f, -0.08140421658754348755f, -0.04846701771020889282f, 0.01629221998155117035f, -0.10289658606052398682f, 0.10701860487461090088f, -0.08968524634838104248f, 0.06680279970169067383f, 0.02620226889848709106f, -0.06467792391777038574f, 0.05129800736904144287f, -0.04205395281314849854f, -0.15441766381263732910f, -0.07077582180500030518f},
  {-0.06204103305935859680f, -0.17272578179836273193f, 0.14051486551761627197f, -0.04311820119619369507f, -0.13509744405746459961f, 0.01690351776778697968f, -0.01915578544139862061f, 0.05636265873908996582f, 0.00351995695382356644f, -0.08096446841955184937f, -0.07636971771717071533f, 0.04112830013036727905f, -0.06524762511253356934f, -0.14141988754272460938f, 0.00718036666512489319f, -0.00182167906314134598f, -0.12860248982906341553f, -0.06399138271808624268f, -0.00626084674149751663f, 0.12560240924358367920f, -0.04640100151300430298f, -0.02672731503844261169f, -0.17435202002525329590f, 0.15351746976375579834f, -0.04533850401639938354f, -0.12659218907356262207f, 0.04111637920141220093f, 0.12655346095561981201f, -0.00039961820584721863f, -0.03553618863224983215f, 0.13241674005985260010f, 0.00353819038718938828f}
};
