#include "weights.h"

const fixed tensor_fc_out_0_weight[4][256] = {
  {0.005831, 0.036736, -0.004200, -0.000562, -0.046902, -0.018500, -0.040377, 0.006987, 0.007615, 0.008102, 0.005439, 0.006281, 0.007840, 0.005802, 0.007725, 0.006000, 0.006966, -0.009521, 0.007399, 0.006615, 0.006447, 0.006783, 0.007091, -0.049981, -0.020357, 0.026583, 0.032385, -0.012562, 0.006887, -0.027529, 0.009017, 0.008411, 0.004911, 0.005256, 0.005031, -0.002712, 0.008406, 0.051111, 0.026005, 0.007249, -0.010340, 0.008666, -0.018939, 0.007286, 0.051104, 0.009480, 0.005142, -0.007590, -0.054981, 0.042749, 0.008104, 0.007299, 0.009183, 0.006344, 0.006268, -0.027166, 0.007816, 0.039841, 0.001529, -0.075668, 0.031462, 0.006188, 0.008157, 0.007434, 0.045336, 0.004907, 0.006530, 0.005002, 0.007065, 0.006533, 0.007845, 0.007422, 0.009530, 0.006853, -0.047183, 0.005288, 0.008931, 0.041127, -0.012749, 0.005900, 0.011152, -0.026600, -0.029850, 0.004453, -0.014277, 0.007477, 0.008337, 0.001751, 0.007429, -0.041627, 0.007059, 0.007858, 0.006038, -0.041960, 0.006216, 0.007245, 0.005031, 0.009333, -0.014869, -0.038239, 0.051448, -0.023748, 0.009157, 0.005933, 0.006771, 0.116330, -0.008423, 0.006262, -0.029954, -0.044340, -0.030342, -0.021467, -0.054123, 0.006610, 0.010449, 0.010638, 0.005802, 0.008041, 0.021542, 0.008261, 0.005920, -0.030789, -0.005085, -0.041988, 0.007838, 0.006692, 0.006411, 0.006271, 0.004537, 0.022891, -0.013227, -0.003508, 0.006016, 0.006129, 0.007281, 0.005824, -0.024251, -0.003734, 0.006137, 0.006718, 0.041398, 0.004360, -0.017379, 0.006209, 0.006285, 0.006642, -0.027357, -0.012644, 0.007887, 0.007040, 0.007433, 0.007242, 0.005105, 0.007097, 0.009824, 0.004996, 0.008675, 0.007613, 0.006257, 0.005044, 0.007392, 0.006256, 0.007321, 0.010133, 0.007020, -0.055410, -0.034430, 0.007696, -0.051937, -0.014921, -0.016805, -0.051833, 0.007330, 0.006733, 0.019242, 0.006996, -0.014781, -0.052899, -0.029279, 0.007823, 0.007252, -0.029141, 0.011512, -0.046001, 0.046568, 0.006638, 0.006108, 0.065086, 0.004209, 0.006362, -0.040729, 0.007310, 0.007783, 0.005513, -0.012861, 0.009121, -0.031532, 0.011273, -0.002274, -0.036522, 0.020130, 0.005838, 0.005026, 0.007004, 0.316276, 0.007861, -0.048140, 0.046094, -0.053188, -0.007789, 0.007223, -0.037269, 0.007660, 0.009277, -0.028060, -0.026895, 0.006324, -0.015220, 0.005480, 0.006990, -0.009112, 0.281245, -0.002528, 0.005640, 0.008516, -0.000502, 0.008621, -0.021261, 0.023267, 0.008577, 0.032441, -0.051133, -0.026892, -0.012421, -0.009100, -0.028347, 0.008245, 0.006405, 0.006298, -0.004978, -0.010750, -0.036800, 0.007658, 0.007659, -0.034211, -0.009663, -0.027187, 0.008764, 0.007237, -0.013400, 0.006865, 0.048456, 0.007747, -0.020032, 0.009349, -0.031280},
  {0.054534, 0.036076, -0.005792, 0.071553, -0.050119, -0.024393, 0.031767, -0.109679, 0.073653, -0.007548, -0.071517, -0.033611, -0.033616, 0.024663, 0.063648, 0.032581, -0.082789, -0.041657, 0.105870, 0.097407, 0.023404, 0.021547, 0.103902, -0.026297, 0.027448, -0.084389, 0.054279, -0.058109, -0.111744, -0.011977, 0.092512, 0.085236, 0.005542, -0.033078, -0.009506, -0.031311, 0.027745, -0.017437, -0.006861, 0.047821, -0.036183, -0.077931, -0.030266, 0.024919, -0.016413, 0.108685, -0.054852, -0.037285, 0.043096, 0.020766, 0.035556, -0.004289, 0.054432, 0.105887, 0.048634, 0.048902, -0.000674, 0.064938, 0.050222, 0.015214, -0.022636, -0.018826, 0.055686, -0.096304, 0.058530, 0.038958, -0.100164, 0.031611, -0.066195, -0.034809, -0.003623, 0.078908, 0.081998, 0.090509, -0.029111, 0.033067, -0.103904, -0.048709, 0.028744, -0.013816, -0.048919, -0.046440, 0.055525, 0.066593, -0.030101, -0.019577, 0.065834, 0.073004, -0.083695, 0.015743, -0.114697, 0.092776, 0.013085, -0.023524, -0.104869, -0.030817, -0.004210, -0.058767, -0.020433, -0.039994, -0.037773, -0.015495, 0.007369, -0.043417, -0.047389, 0.043706, 0.000140, -0.108523, -0.017481, 0.009572, -0.020137, 0.038885, -0.093877, 0.012710, 0.033274, 0.024206, 0.032594, 0.093344, -0.075379, 0.062080, 0.022671, 0.017526, -0.010369, 0.029371, -0.098669, -0.012794, 0.110750, -0.096335, -0.051146, 0.013737, -0.014714, 0.026865, -0.087436, 0.024512, -0.057409, 0.065266, 0.032221, -0.015402, -0.112276, 0.079885, 0.039170, 0.046634, 0.004401, 0.049655, 0.012412, -0.081013, 0.034836, 0.037180, -0.077466, -0.073023, 0.106436, -0.062423, -0.050390, 0.096714, 0.092119, 0.002239, 0.030859, -0.026990, -0.053615, -0.023389, -0.011859, 0.057384, -0.077097, 0.106264, 0.106907, 0.059671, -0.011655, -0.079371, 0.061628, -0.030105, -0.064382, 0.044115, -0.004823, -0.079351, -0.004307, -0.082846, 0.001898, -0.014922, -0.056553, -0.102593, -0.036781, 0.012858, -0.040080, 0.015760, 0.024547, 0.072819, -0.094454, 0.014047, 0.016199, 0.100372, 0.046506, 0.000039, -0.096205, -0.024710, -0.047168, 0.113633, 0.013417, -0.001793, 0.067588, -0.070116, 0.026597, -0.036578, 0.029858, 0.082537, 0.008224, 0.061965, -0.012573, -0.105945, 0.008681, -0.037234, -0.058030, 0.050197, -0.097904, 0.078367, -0.014481, -0.037348, -0.092745, 0.032429, 0.072189, -0.111237, 0.019190, -0.034412, -0.043559, 0.098249, -0.080813, 0.045353, -0.090622, -0.050063, 0.047618, 0.078850, -0.018969, 0.043988, 0.005487, -0.000834, -0.059773, -0.000822, -0.064316, 0.013814, -0.103560, -0.018169, 0.000484, -0.057575, -0.018223, 0.098668, -0.021205, 0.021259, 0.025835, -0.025681, 0.073918, -0.010369, 0.104202, -0.016294, -0.100068, -0.007647, -0.046524, -0.009147},
  {0.079847, 0.053206, -0.010652, 0.038039, 0.018802, 0.046838, -0.036889, -0.014301, 0.047694, -0.114083, 0.061580, -0.108063, -0.102467, -0.032087, 0.063507, -0.101920, 0.079215, -0.053210, -0.022076, -0.031277, 0.098074, 0.068744, 0.001531, 0.003316, -0.033830, 0.071337, -0.033598, -0.026539, 0.000836, -0.041630, 0.056215, 0.070082, 0.107751, -0.063912, 0.070905, 0.033989, 0.120546, -0.040863, -0.007841, 0.093292, 0.010690, -0.080163, -0.015262, -0.065718, -0.012549, -0.021773, 0.086669, -0.018140, -0.000310, -0.023532, 0.103536, 0.110533, -0.096664, 0.028493, -0.060691, -0.053226, -0.110259, -0.045166, -0.057442, -0.010619, -0.008792, 0.102888, 0.092452, -0.049590, -0.056322, 0.011377, 0.012745, -0.098693, -0.085554, 0.100131, -0.112557, 0.074366, -0.075588, 0.052568, -0.028739, 0.023040, 0.026680, 0.043658, 0.030093, -0.042595, 0.049914, 0.001241, -0.000404, 0.018839, -0.013218, -0.080658, -0.080735, -0.043958, 0.045916, 0.029578, 0.010185, -0.057844, 0.061644, -0.013358, -0.002438, 0.106376, -0.001252, -0.092818, -0.017124, 0.073593, -0.055226, -0.037304, -0.092647, -0.099071, 0.103935, -0.044435, -0.034920, -0.032155, 0.006980, 0.016028, -0.005480, 0.027725, 0.037252, -0.107677, -0.038605, 0.042305, -0.104005, 0.054153, 0.092900, 0.087508, -0.097866, -0.005536, -0.031162, 0.053924, 0.047384, 0.101629, -0.013242, 0.049967, -0.015113, 0.035771, 0.021443, -0.029267, 0.016055, 0.109223, -0.075023, -0.041277, 0.033703, 0.038540, 0.003695, -0.042678, 0.009785, -0.104610, -0.012948, -0.101072, 0.093542, 0.073871, 0.013860, -0.041351, 0.077650, -0.045430, -0.021101, 0.084571, 0.032971, -0.048206, 0.063187, -0.043088, 0.011848, 0.026242, 0.092578, 0.030673, -0.104471, -0.093587, 0.013773, 0.036078, 0.008509, 0.006020, 0.029136, 0.069750, -0.061777, 0.031689, -0.020478, -0.001184, -0.092386, -0.046829, -0.044377, -0.074214, 0.023994, 0.054255, -0.023587, -0.024917, 0.063561, -0.027625, -0.016420, 0.053953, 0.040457, -0.077838, -0.051632, 0.026797, 0.035177, 0.008027, 0.015782, 0.112532, -0.061407, -0.025364, -0.031968, 0.015530, -0.032646, -0.002099, -0.031646, -0.067223, 0.045298, 0.097609, -0.042528, -0.006742, 0.005445, -0.094060, 0.035922, 0.004234, -0.056346, -0.012628, -0.035677, 0.052642, -0.053622, 0.080955, 0.038235, -0.038860, -0.026374, 0.055220, 0.004926, -0.010879, -0.014631, 0.033648, -0.021527, 0.024469, -0.078189, -0.013078, 0.060678, -0.062518, 0.013836, -0.078281, -0.056007, 0.043866, 0.070849, -0.050209, 0.001604, 0.121209, 0.088065, 0.108935, 0.026682, -0.023340, 0.007599, -0.032817, 0.000794, -0.050357, 0.014090, -0.003232, -0.010715, -0.094784, -0.063680, -0.043361, 0.033039, -0.001631, -0.061062, -0.001246, -0.108607, 0.031607},
  {-0.071870, 0.026311, 0.022145, -0.094165, 0.043325, -0.035059, -0.037770, 0.035578, -0.083998, 0.001732, -0.076147, -0.011329, 0.038622, -0.118680, 0.089869, 0.044715, 0.020480, 0.008934, 0.034589, -0.058993, -0.061910, -0.096962, -0.050496, -0.048645, -0.011177, -0.012452, -0.034856, 0.034780, -0.024384, 0.008332, -0.008922, -0.019203, 0.039558, 0.100073, -0.099263, 0.012778, -0.000689, 0.025268, -0.024862, 0.050000, -0.000588, 0.043907, -0.040557, -0.102213, -0.014836, 0.062224, -0.071807, 0.009149, -0.102290, -0.053759, 0.001824, 0.005832, -0.053308, -0.023443, 0.096976, 0.025065, 0.021826, -0.026904, 0.004057, 0.007709, 0.000007, 0.048673, 0.004239, 0.047835, -0.030229, -0.118982, 0.067720, -0.060167, -0.042836, -0.002668, -0.015925, 0.055502, 0.006854, -0.052020, -0.009728, 0.118543, 0.002223, -0.015704, 0.035974, 0.115791, -0.029387, 0.027395, -0.002093, 0.102078, 0.004189, -0.090213, 0.069140, -0.018705, 0.078614, 0.044176, 0.021342, 0.023397, 0.108976, -0.038330, -0.057018, 0.023938, 0.127922, -0.000524, -0.039400, -0.061757, 0.008848, -0.009578, -0.040623, -0.037965, -0.027508, -0.000613, 0.035445, -0.008608, 0.016897, -0.060254, -0.027693, 0.048422, 0.015154, -0.036533, 0.020023, -0.017121, 0.027059, 0.047567, -0.049796, -0.030158, 0.078895, -0.022887, -0.023002, 0.036777, 0.036041, -0.050936, -0.001028, -0.041474, 0.112459, 0.046822, -0.005814, 0.014810, -0.082577, 0.022230, -0.075493, -0.096247, 0.036328, 0.024368, 0.039279, 0.078474, 0.020861, -0.021390, 0.012712, -0.034539, 0.069667, -0.045900, -0.026186, 0.048273, -0.003677, 0.087137, -0.028502, 0.042087, -0.108584, -0.037856, 0.016125, 0.007321, 0.031649, -0.121109, -0.056206, 0.120678, -0.045266, -0.011041, 0.097849, -0.035983, 0.038640, -0.027995, -0.022168, 0.050405, -0.030415, -0.057088, 0.033856, -0.042026, 0.078104, -0.087915, -0.039533, 0.008015, -0.023765, 0.033503, 0.001987, 0.061590, 0.096551, 0.015583, -0.063955, -0.053701, -0.025280, 0.040585, -0.048495, -0.076509, -0.116912, -0.073093, 0.001331, -0.002695, 0.028220, -0.122155, -0.046220, -0.004683, -0.069101, 0.068612, 0.005287, -0.020120, 0.006291, 0.073210, 0.111570, 0.087738, -0.009034, 0.021017, 0.045893, 0.025089, -0.039905, -0.009682, -0.103714, 0.059789, -0.005869, 0.018750, -0.029581, -0.058154, -0.068929, -0.054485, -0.099382, 0.001814, 0.026356, 0.003835, 0.024799, 0.064912, -0.015872, 0.028932, -0.003438, 0.043414, 0.020452, -0.012506, 0.100749, 0.000832, 0.017235, -0.000355, 0.025863, 0.034484, -0.005422, -0.035582, -0.035205, -0.076870, -0.017829, -0.002889, 0.003349, -0.009659, 0.018298, -0.005202, -0.047091, 0.066450, -0.066540, -0.031476, 0.017352, -0.076192, -0.025165, -0.023358, 0.011804, 0.050755}
};
