#include "weights.h"

const ap_fixed<18,5> tensor_mod_fc_0_0_weight[32][128] =
{
  {-0.00942421052604913712f, -0.02410224452614784241f, 0.06345493346452713013f, -0.08869075775146484375f, -0.05157915130257606506f, 0.01450492255389690399f, 0.06605349481105804443f, 0.02409384399652481079f, -0.04725271090865135193f, -0.00651918258517980576f, 0.01827853918075561523f, 0.03306841477751731873f, 0.02508418262004852295f, 0.01258807815611362457f, 0.04711072891950607300f, -0.09304493665695190430f, -0.06192619353532791138f, -0.07251452654600143433f, 0.04633140563964843750f, 0.00560265965759754181f, -0.09273958206176757812f, -0.06065732240676879883f, -0.00041968177538365126f, -0.09404502063989639282f, -0.02410314604640007019f, -0.04769772291183471680f, -0.05907506495714187622f, 0.01696017198264598846f, 0.05689461529254913330f, -0.08388845622539520264f, -0.06743958592414855957f, -0.05154971778392791748f, -0.04305196180939674377f, -0.08976808190345764160f, 0.03785450756549835205f, -0.08609047532081604004f, 0.06828255951404571533f, -0.02658114582300186157f, 0.00271627400070428848f, 0.04844576120376586914f, 0.05084977298974990845f, -0.07155117392539978027f, -0.02373605035245418549f, -0.09654751420021057129f, -0.09010559320449829102f, 0.02851662039756774902f, 0.00343823805451393127f, 0.06527855247259140015f, 0.01829739473760128021f, -0.04079945385456085205f, -0.01355206407606601715f, -0.06144353747367858887f, 0.03735280036926269531f, -0.00980780832469463348f, -0.01058777980506420135f, 0.06555274128913879395f, 0.03207180276513099670f, -0.05713193863630294800f, 0.02752284891903400421f, -0.04273940250277519226f, -0.06509678065776824951f, 0.01896869763731956482f, -0.04437965899705886841f, 0.03158988803625106812f, 0.03380407392978668213f, 0.04623016715049743652f, -0.08523228019475936890f, 0.00820847414433956146f, 0.01327704638242721558f, 0.06183003634214401245f, 0.03929990530014038086f, 0.00874840095639228821f, 0.02751017734408378601f, 0.05645518749952316284f, 0.04988888651132583618f, -0.01647144556045532227f, 0.03668547049164772034f, 0.01749725267291069031f, -0.00640221498906612396f, 0.00033852289197966456f, -0.05223341658711433411f, 0.04117123037576675415f, -0.04762515425682067871f, 0.05161355435848236084f, -0.02718669548630714417f, -0.05769418552517890930f, 0.03976894915103912354f, 0.03563826903700828552f, -0.02569159120321273804f, 0.04707959294319152832f, -0.09900182485580444336f, -0.10048763453960418701f, -0.07994922995567321777f, -0.09619681537151336670f, 0.03661908954381942749f, 0.03361006081104278564f, 0.06651490181684494019f, -0.02338622510433197021f, -0.00885690189898014069f, -0.08217071741819381714f, 0.06767065823078155518f, 0.04020248353481292725f, 0.02788663282990455627f, -0.03600361943244934082f, 0.04785601794719696045f, 0.03889723867177963257f, 0.00751503836363554001f, -0.03391509503126144409f, -0.02669691666960716248f, 0.06486593186855316162f, 0.05424089729785919189f, 0.04663699120283126831f, -0.03927503526210784912f, -0.03728117793798446655f, -0.01573589816689491272f, 0.00950975343585014343f, 0.03767924755811691284f, -0.02915040776133537292f, -0.07183033227920532227f, 0.05300074815750122070f, -0.05516461655497550964f, -0.05767730996012687683f, 0.01520145125687122345f, -0.05142987519502639771f, -0.02576517499983310699f, -0.09104038029909133911f, -0.07921056449413299561f, 0.05885038897395133972f},
  {0.03584446758031845093f, 0.02082809060811996460f, 0.06176059693098068237f, 0.03808679431676864624f, -0.06852650642395019531f, -0.09466050565242767334f, 0.02639254368841648102f, 0.02695874869823455811f, -0.04485015943646430969f, 0.00675559602677822113f, 0.04850460216403007507f, 0.06055015325546264648f, -0.04797440022230148315f, -0.08500000834465026855f, 0.03747921437025070190f, -0.03576054424047470093f, -0.00270956591702997684f, -0.04027818143367767334f, -0.05891368910670280457f, -0.06180841103196144104f, 0.04923979192972183228f, -0.02242997288703918457f, -0.06697786599397659302f, 0.04437462240457534790f, -0.03264950215816497803f, 0.00643226271495223045f, -0.08627177774906158447f, -0.08444425463676452637f, 0.03406386822462081909f, 0.07481744140386581421f, 0.02773083001375198364f, -0.06453317403793334961f, 0.01409579813480377197f, -0.00052891403902322054f, 0.06104494631290435791f, -0.00813987292349338531f, 0.02154158428311347961f, 0.07275354117155075073f, -0.02139041572809219360f, 0.02755199372768402100f, 0.06685774028301239014f, -0.07213308662176132202f, 0.05273171886801719666f, -0.02188865467905998230f, 0.06801366806030273438f, -0.07112501561641693115f, -0.06293884664773941040f, -0.01181083358824253082f, -0.03705775737762451172f, 0.00652644969522953033f, 0.06033836305141448975f, -0.07247203588485717773f, 0.01119022630155086517f, 0.07502312958240509033f, 0.00950310006737709045f, 0.02380935288965702057f, -0.06224339455366134644f, -0.08764973282814025879f, 0.06613376736640930176f, -0.07576791942119598389f, -0.01676686108112335205f, -0.09465278685092926025f, -0.05762177705764770508f, 0.00059493264416232705f, -0.03667604178190231323f, -0.04785008728504180908f, -0.01542887836694717407f, 0.01667493581771850586f, 0.03070114180445671082f, -0.05356979370117187500f, -0.06070093065500259399f, 0.04882570356130599976f, 0.02859273552894592285f, 0.03682389482855796814f, 0.03371045365929603577f, -0.04592160135507583618f, 0.04860197752714157104f, 0.03144942596554756165f, -0.01633024960756301880f, -0.01320521906018257141f, 0.06649764627218246460f, -0.07141265273094177246f, 0.05981022119522094727f, -0.05129551887512207031f, -0.04293101653456687927f, 0.03518848493695259094f, -0.07178941369056701660f, -0.08686144649982452393f, -0.00988598167896270752f, 0.05213713273406028748f, -0.03933910652995109558f, -0.04872129857540130615f, 0.07442608475685119629f, 0.00725115137174725533f, -0.09665352106094360352f, -0.02270270511507987976f, 0.06026100367307662964f, -0.01842292398214340210f, 0.00795006472617387772f, -0.02135518938302993774f, 0.01084962766617536545f, -0.02323069423437118530f, 0.05371932312846183777f, -0.00432558590546250343f, 0.06507232785224914551f, -0.08348440378904342651f, 0.02869745343923568726f, -0.08161041140556335449f, -0.02076171711087226868f, -0.09075170755386352539f, -0.01326855737715959549f, 0.06124565750360488892f, -0.03517917916178703308f, -0.03603701665997505188f, -0.02225285023450851440f, -0.04397314414381980896f, -0.06218974292278289795f, -0.04986015707254409790f, 0.03867770731449127197f, -0.00168484332971274853f, -0.04509815946221351624f, -0.06022566556930541992f, -0.03001636266708374023f, -0.09926076978445053101f, -0.05588540434837341309f, -0.01020459830760955811f, -0.09789867699146270752f, -0.01479773782193660736f},
  {0.44770577549934387207f, 0.13003334403038024902f, 0.05251117795705795288f, -0.28914451599121093750f, -0.02684532478451728821f, 0.03862498700618743896f, 0.02292685955762863159f, -0.02311395481228828430f, -0.10143217444419860840f, -0.01508260797709226608f, -0.24946638941764831543f, -0.17039659619331359863f, 0.04617130756378173828f, 0.22168934345245361328f, 0.07939340174198150635f, 0.19087770581245422363f, 0.06915123760700225830f, -0.49672722816467285156f, -0.08264140039682388306f, 0.01949414052069187164f, -0.19362252950668334961f, -0.19794836640357971191f, 0.06470797210931777954f, -0.04181545972824096680f, 0.18484266102313995361f, -0.10673163831233978271f, 0.14168255031108856201f, -0.09410747140645980835f, -0.20681408047676086426f, 0.20456567406654357910f, 0.51306605339050292969f, 0.27125096321105957031f, -0.07114880532026290894f, 0.18951183557510375977f, -0.01296999678015708923f, -0.35136789083480834961f, -0.00249712681397795677f, 0.25363120436668395996f, 0.06792218238115310669f, 0.34398066997528076172f, 0.10482632368803024292f, 0.18872711062431335449f, -0.01394763030111789703f, 0.46256804466247558594f, -0.38564789295196533203f, -0.35724496841430664062f, 0.06058280915021896362f, -0.01367958262562751770f, 0.07382174581289291382f, -0.06269022822380065918f, 0.02844533696770668030f, -0.02970353886485099792f, 0.28608977794647216797f, 0.10693296790122985840f, 0.11760924756526947021f, 0.15439805388450622559f, 0.45116782188415527344f, -0.22147479653358459473f, -0.18430808186531066895f, -0.04753064364194869995f, -0.39582237601280212402f, -0.42991495132446289062f, -0.08226095139980316162f, 0.04157815128564834595f, 0.22418347001075744629f, -0.00599206099286675453f, 0.46812903881072998047f, -0.17385764420032501221f, -0.03080866858363151550f, 0.08373200893402099609f, 0.08883070945739746094f, -0.07505270093679428101f, -0.26167175173759460449f, -0.11490155011415481567f, 0.04485585540533065796f, -0.00348441931419074535f, -0.40809834003448486328f, -0.11923022568225860596f, -0.03215358778834342957f, -0.01710150763392448425f, -0.56831836700439453125f, -0.19987680017948150635f, -0.26623925566673278809f, 0.08853073418140411377f, 0.18947698175907135010f, 0.07132066786289215088f, -0.15712709724903106689f, -0.19114771485328674316f, 0.05589105188846588135f, 0.09696798026561737061f, -0.22076478600502014160f, -0.24810414016246795654f, 0.17141854763031005859f, 0.01988985948264598846f, -0.18724387884140014648f, -0.47235766053199768066f, -0.01943585835397243500f, -0.05395783111453056335f, 0.00320899416692554951f, 0.14486065506935119629f, 0.41306570172309875488f, -0.00196422636508941650f, -0.26808691024780273438f, 0.11960419267416000366f, -0.40875029563903808594f, -0.06843970715999603271f, -0.39121580123901367188f, 0.30434310436248779297f, 0.09254637360572814941f, -0.22058132290840148926f, 0.13375909626483917236f, -0.11711952835321426392f, 0.01640299521386623383f, 0.38159212470054626465f, 0.40507468581199645996f, 0.02428162842988967896f, 0.25860270857810974121f, -0.14924460649490356445f, -0.15698483586311340332f, 0.32762363553047180176f, -0.03821958974003791809f, 0.19366288185119628906f, -0.02319041639566421509f, -0.36493325233459472656f, 0.35199394822120666504f, -0.50575506687164306641f, 0.13409975171089172363f, -0.08195187151432037354f},
  {0.02787332609295845032f, 0.00439407117664813995f, -0.03954812139272689819f, 0.06619058549404144287f, 0.06395410001277923584f, -0.03893246501684188843f, 0.03886658698320388794f, -0.00464307703077793121f, 0.00213418761268258095f, -0.00904022715985774994f, 0.01650143414735794067f, -0.00016733864322304726f, -0.06701649725437164307f, -0.06031080335378646851f, 0.04651854932308197021f, -0.05854507535696029663f, 0.00097453861963003874f, 0.06130075454711914062f, -0.09006172418594360352f, -0.04823819175362586975f, 0.05327858030796051025f, 0.02526627853512763977f, -0.02537263929843902588f, -0.01135203056037425995f, 0.03230337053537368774f, 0.06604276597499847412f, 0.04470973089337348938f, 0.02232431247830390930f, -0.02563012018799781799f, -0.00813612155616283417f, -0.01765698567032814026f, 0.00791495852172374725f, -0.02570358477532863617f, 0.00309553719125688076f, -0.06448064744472503662f, -0.04562857747077941895f, 0.04307679459452629089f, -0.09646731615066528320f, -0.03129509463906288147f, -0.01145314425230026245f, 0.02426132932305335999f, -0.05490282922983169556f, 0.06780843436717987061f, -0.04461978375911712646f, 0.00969505868852138519f, -0.05541852861642837524f, -0.01378003880381584167f, -0.00400491245090961456f, -0.02119927108287811279f, -0.06281670928001403809f, -0.02057184278964996338f, 0.05736451596021652222f, -0.03728289902210235596f, 0.01129433698952198029f, -0.01938566379249095917f, 0.01188296452164649963f, 0.02973995730280876160f, 0.03718724846839904785f, -0.02270303666591644287f, -0.01710201799869537354f, 0.10033982992172241211f, -0.01882850006222724915f, -0.09209141880273818970f, 0.04463671147823333740f, -0.01278425566852092743f, 0.00354044232517480850f, -0.06256271898746490479f, 0.00307620363309979439f, 0.03297000750899314880f, -0.08673080801963806152f, -0.07790024578571319580f, -0.09845592081546783447f, -0.06340077519416809082f, -0.00811575725674629211f, 0.01621705666184425354f, -0.01911034807562828064f, -0.09270782768726348877f, 0.03818612545728683472f, -0.05441829934716224670f, 0.05059828609228134155f, -0.07610572129487991333f, 0.04525379836559295654f, -0.03609851747751235962f, -0.04727647453546524048f, -0.08378585427999496460f, 0.04852620512247085571f, -0.02687838673591613770f, -0.08024796098470687866f, 0.03929805755615234375f, -0.04110578447580337524f, -0.08121502399444580078f, 0.05422101169824600220f, -0.05663295090198516846f, 0.02562889643013477325f, -0.08986420929431915283f, 0.01039815135300159454f, -0.03397433832287788391f, 0.02479505352675914764f, -0.06041987612843513489f, -0.09269588440656661987f, -0.11890731751918792725f, -0.03781165182590484619f, -0.09642039239406585693f, 0.00969601143151521683f, -0.00282003404572606087f, 0.04245696589350700378f, -0.09017868340015411377f, -0.10229651629924774170f, -0.06144089996814727783f, -0.06610636413097381592f, -0.00588266644626855850f, -0.00802384689450263977f, -0.04121498763561248779f, -0.09922762215137481689f, -0.08998110890388488770f, -0.07518507540225982666f, -0.12176758795976638794f, 0.05458935350179672241f, 0.03915806859731674194f, -0.07701575756072998047f, 0.05881634354591369629f, -0.00311966799199581146f, 0.00256803492084145546f, 0.00577436108142137527f, 0.06144429743289947510f, 0.04040204361081123352f, 0.07859641313552856445f, -0.00246661948040127754f},
  {-0.42703330516815185547f, 0.10974155366420745850f, -0.17176085710525512695f, 0.22826495766639709473f, 0.03937585651874542236f, 0.21915355324745178223f, -0.03224410116672515869f, -0.13263253867626190186f, 0.10845954716205596924f, -0.01612780988216400146f, 0.29571133852005004883f, 0.02661029621958732605f, -0.01529994234442710876f, -0.07085624337196350098f, -0.08561499416828155518f, -0.20931282639503479004f, 0.19524092972278594971f, 0.28702467679977416992f, 0.08046124130487442017f, 0.01872035861015319824f, 0.23189049959182739258f, 0.28393593430519104004f, -0.01227148622274398804f, -0.04859818145632743835f, -0.27523913979530334473f, 0.06117738038301467896f, -0.14671325683593750000f, 0.06143347918987274170f, 0.24385407567024230957f, -0.16531205177307128906f, -0.52386593818664550781f, -0.29916852712631225586f, 0.07654356956481933594f, -0.23304146528244018555f, -0.04302928596735000610f, 0.40827822685241699219f, 0.00828481465578079224f, -0.20302996039390563965f, -0.06244942173361778259f, -0.33388203382492065430f, -0.06330958008766174316f, -0.12246055901050567627f, -0.01003996841609477997f, -0.41547065973281860352f, 0.32467961311340332031f, 0.24954429268836975098f, -0.07235509157180786133f, -0.12485824525356292725f, 0.04618679732084274292f, -0.12994244694709777832f, -0.13336095213890075684f, -0.04466679692268371582f, -0.44618114829063415527f, 0.01273493003100156784f, -0.07786779105663299561f, 0.09423962980508804321f, -0.41257175803184509277f, 0.13433393836021423340f, 0.08410707116127014160f, 0.14749211072921752930f, 0.25858390331268310547f, 0.33528083562850952148f, -0.00366546586155891418f, -0.09955111891031265259f, -0.23949369788169860840f, -0.05487994104623794556f, -0.47322472929954528809f, 0.27099460363388061523f, 0.00460604485124349594f, 0.07066809386014938354f, -0.07131427526473999023f, 0.16669367253780364990f, 0.25563955307006835938f, 0.04142450541257858276f, -0.05407890677452087402f, 0.00488835759460926056f, 0.38567245006561279297f, 0.07456192374229431152f, -0.01016570255160331726f, -0.11800674349069595337f, 0.44243618845939636230f, 0.20161542296409606934f, -0.13874518871307373047f, 0.09196437150239944458f, -0.18016639351844787598f, 0.06344717741012573242f, 0.22621840238571166992f, 0.08423237502574920654f, -0.05348940193653106689f, -0.11440099775791168213f, 0.15200242400169372559f, 0.12056881189346313477f, -0.17745065689086914062f, -0.16923621296882629395f, 0.35611051321029663086f, 0.41366750001907348633f, 0.06495751440525054932f, 0.15375754237174987793f, 0.03000905364751815796f, -0.16194933652877807617f, -0.34819564223289489746f, 0.04131958261132240295f, 0.25203984975814819336f, -0.04095119237899780273f, 0.46820691227912902832f, 0.01540094427764415741f, 0.47128531336784362793f, -0.22171789407730102539f, 0.11323331296443939209f, 0.23060859739780426025f, -0.07014872133731842041f, 0.05691569298505783081f, 0.05207968875765800476f, -0.51136213541030883789f, -0.38061481714248657227f, 0.01163309253752231598f, -0.14335653185844421387f, 0.08099310100078582764f, 0.18055483698844909668f, -0.18354687094688415527f, 0.18497101962566375732f, -0.19453796744346618652f, 0.01496460847556591034f, 0.44095063209533691406f, -0.27768981456756591797f, 0.42425429821014404297f, -0.40182960033416748047f, 0.08260396867990493774f},
  {-0.07330152392387390137f, 0.12512063980102539062f, -0.46966254711151123047f, -0.10636958479881286621f, -0.02825041674077510834f, -0.10647799074649810791f, -0.04118538647890090942f, 0.09573959559202194214f, -0.47300469875335693359f, 0.11184406280517578125f, -0.10337965190410614014f, -0.01268177386373281479f, -0.09246918559074401855f, -0.21049273014068603516f, 0.33689939975738525391f, 0.29206615686416625977f, 0.38622134923934936523f, 0.10657376796007156372f, 0.34081643819808959961f, -0.07482790946960449219f, -0.39097315073013305664f, -0.05844519287347793579f, -0.02002232894301414490f, -0.01421664003282785416f, 0.31634074449539184570f, 0.08248277753591537476f, -0.14709408581256866455f, 0.26033008098602294922f, -0.27324730157852172852f, -0.11910247802734375000f, 0.12828002870082855225f, -0.07973140478134155273f, -0.08537171781063079834f, 0.40719759464263916016f, 0.01867455430328845978f, -0.12548696994781494141f, 0.34954050183296203613f, 0.13894033432006835938f, 0.31264287233352661133f, -0.37170028686523437500f, 0.05778397992253303528f, 0.41720753908157348633f, 0.01958859898149967194f, -0.11543799936771392822f, 0.37582731246948242188f, -0.08286787569522857666f, 0.03192948549985885620f, -0.25366559624671936035f, -0.04192012548446655273f, -0.15880356729030609131f, 0.30531862378120422363f, -0.04510970786213874817f, -0.23281615972518920898f, 0.16694505512714385986f, -0.14916494488716125488f, 0.13754592835903167725f, -0.14582306146621704102f, 0.05962084978818893433f, 0.02833874523639678955f, 0.45202225446701049805f, -0.06026054173707962036f, -0.26191774010658264160f, -0.08204441517591476440f, -0.32097551226615905762f, 0.07533337175846099854f, -0.01249290350824594498f, -0.29312443733215332031f, -0.42606884241104125977f, -0.07095246016979217529f, 0.15954232215881347656f, 0.04688038304448127747f, 0.01569562777876853943f, -0.05717433989048004150f, 0.08401587605476379395f, -0.02404390834271907806f, -0.07884518802165985107f, 0.16461944580078125000f, -0.27516150474548339844f, -0.06620256602764129639f, -0.12998127937316894531f, -0.02128828316926956177f, 0.27320349216461181641f, -0.16124781966209411621f, 0.02269962057471275330f, -0.00818096473813056946f, 0.04975372925400733948f, -0.19728219509124755859f, -0.46030506491661071777f, -0.14868317544460296631f, 0.35559862852096557617f, 0.08831889927387237549f, -0.19690401852130889893f, 0.49797976016998291016f, 0.45082283020019531250f, -0.30041381716728210449f, 0.21369427442550659180f, -0.21535517275333404541f, 0.02222694829106330872f, -0.38124781847000122070f, 0.09473043680191040039f, -0.23879048228263854980f, -0.05783668532967567444f, -0.01954488456249237061f, -0.30917102098464965820f, 0.24000793695449829102f, 0.36092513799667358398f, 0.06563639640808105469f, 0.06937920302152633667f, -0.02640622667968273163f, 0.43452197313308715820f, -0.06667251884937286377f, 0.07235500216484069824f, 0.01119253505021333694f, -0.21541255712509155273f, 0.17440666258335113525f, -0.05199244618415832520f, -0.29496842622756958008f, -0.51685810089111328125f, -0.17572996020317077637f, 0.28965461254119873047f, 0.07129637897014617920f, -0.38435995578765869141f, 0.02818174101412296295f, 0.27772969007492065430f, -0.15052324533462524414f, 0.23764494061470031738f, 0.19492530822753906250f, -0.26492044329643249512f},
  {-0.18938635289669036865f, 0.31844234466552734375f, -0.27752470970153808594f, 0.22739262878894805908f, -0.00480399653315544128f, 0.26662814617156982422f, -0.00792546756565570831f, -0.00121923931874334812f, -0.41469076275825500488f, -0.04135193675756454468f, 0.14731116592884063721f, 0.10810798406600952148f, -0.09106458723545074463f, -0.25824970006942749023f, 0.35218197107315063477f, 0.01278754323720932007f, -0.12701907753944396973f, 0.12241549044847488403f, 0.34319305419921875000f, -0.03276915103197097778f, -0.08830508589744567871f, 0.22125802934169769287f, 0.02877702005207538605f, 0.11678837239742279053f, 0.27072024345397949219f, -0.20195472240447998047f, 0.08668405562639236450f, 0.07197943329811096191f, -0.11684112250804901123f, 0.01909706369042396545f, -0.14456892013549804688f, -0.27669063210487365723f, 0.00476115942001342773f, 0.18056210875511169434f, -0.04001563042402267456f, 0.15286292135715484619f, 0.09532938897609710693f, -0.07438971847295761108f, 0.01686717942357063293f, -0.34108045697212219238f, -0.23698845505714416504f, 0.17899085581302642822f, 0.20101605355739593506f, -0.20777857303619384766f, 0.38161209225654602051f, -0.14335054159164428711f, 0.20654074847698211670f, -0.38426354527473449707f, 0.04934367537498474121f, -0.14451226592063903809f, 0.06125936657190322876f, 0.20239767432212829590f, -0.37120711803436279297f, -0.15915170311927795410f, -0.11445131152868270874f, 0.13386097550392150879f, -0.21703885495662689209f, -0.22433973848819732666f, 0.16730180382728576660f, 0.26816913485527038574f, 0.20262196660041809082f, 0.10800148546695709229f, -0.11741831898689270020f, -0.26350536942481994629f, -0.27137297391891479492f, -0.16221445798873901367f, -0.53641951084136962891f, -0.26389452815055847168f, 0.17930729687213897705f, 0.28296148777008056641f, 0.07550598680973052979f, -0.16898095607757568359f, 0.26607614755630493164f, 0.04038284346461296082f, 0.14009264111518859863f, -0.10951523482799530029f, 0.38906005024909973145f, -0.39182007312774658203f, -0.22463481128215789795f, -0.34985667467117309570f, 0.16147176921367645264f, 0.47660213708877563477f, -0.17748686671257019043f, 0.18289431929588317871f, -0.23902511596679687500f, -0.02515582367777824402f, 0.03061971440911293030f, -0.18856334686279296875f, -0.26826250553131103516f, 0.31505018472671508789f, -0.02889069542288780212f, -0.03213135898113250732f, 0.17960548400878906250f, 0.33262965083122253418f, -0.05008520185947418213f, 0.32015979290008544922f, -0.18831156194210052490f, -0.02259401977062225342f, -0.09194897860288619995f, 0.14980986714363098145f, -0.25835287570953369141f, 0.14928212761878967285f, 0.07280483841896057129f, -0.38689595460891723633f, 0.32960277795791625977f, 0.20968702435493469238f, 0.04231814667582511902f, -0.25188690423965454102f, 0.00215403316542506218f, 0.52553933858871459961f, 0.11268466711044311523f, -0.18700408935546875000f, -0.10232056677341461182f, -0.40361964702606201172f, -0.10472314059734344482f, -0.11506810039281845093f, -0.35977220535278320312f, -0.24442973732948303223f, -0.24823406338691711426f, -0.01867355220019817352f, 0.15241912007331848145f, -0.47066450119018554688f, -0.08525653183460235596f, 0.29359915852546691895f, -0.00470433663576841354f, 0.28497898578643798828f, -0.11086276173591613770f, -0.05331697314977645874f},
  {0.11845596134662628174f, 0.17168527841567993164f, -0.40151524543762207031f, -0.41959387063980102539f, -0.01519551593810319901f, -0.15783216059207916260f, 0.03390374034643173218f, -0.04104959219694137573f, -0.18042589724063873291f, -0.12554194033145904541f, -0.32131719589233398438f, 0.02423163875937461853f, 0.08955278247594833374f, 0.01541899517178535461f, 0.01064169034361839294f, 0.34409686923027038574f, 0.23535935580730438232f, -0.05863254889845848083f, 0.05307395011186599731f, 0.06325756013393402100f, -0.45435774326324462891f, -0.33000358939170837402f, -0.00012958362640347332f, 0.02754046395421028137f, 0.14589694142341613770f, 0.06091634184122085571f, -0.14595341682434082031f, 0.26600471138954162598f, -0.38012257218360900879f, -0.23968403041362762451f, 0.37583893537521362305f, 0.22298687696456909180f, -0.19155724346637725830f, 0.40901255607604980469f, 0.03120376169681549072f, -0.36124807596206665039f, 0.44195759296417236328f, 0.27837431430816650391f, 0.04771302267909049988f, -0.11225757747888565063f, 0.40290558338165283203f, 0.42488396167755126953f, -0.23351308703422546387f, 0.08004893362522125244f, 0.06944262236356735229f, -0.26006186008453369141f, -0.21524432301521301270f, -0.27511125802993774414f, -0.08225850015878677368f, -0.14312055706977844238f, 0.22128573060035705566f, 0.08845922350883483887f, -0.06239062920212745667f, 0.12697097659111022949f, -0.15451875329017639160f, 0.06006228551268577576f, 0.12567430734634399414f, 0.16628444194793701172f, -0.23532979190349578857f, 0.35218659043312072754f, -0.51590287685394287109f, -0.34133899211883544922f, -0.02657561004161834717f, -0.26846808195114135742f, 0.38818734884262084961f, -0.40164652466773986816f, 0.17746949195861816406f, -0.23119013011455535889f, -0.22725266218185424805f, 0.16875028610229492188f, 0.02251646853983402252f, 0.12203691899776458740f, -0.32874268293380737305f, -0.13302400708198547363f, -0.19181561470031738281f, -0.12149640172719955444f, -0.14168730378150939941f, -0.14916925132274627686f, 0.28234267234802246094f, 0.04525590687990188599f, -0.23623782396316528320f, -0.12101018428802490234f, -0.23436893522739410400f, 0.10463637113571166992f, 0.33098310232162475586f, 0.00378245161846280098f, -0.25515866279602050781f, -0.19420206546783447266f, 0.09456044435501098633f, 0.24191534519195556641f, 0.18101546168327331543f, -0.29865872859954833984f, 0.47213101387023925781f, 0.14156246185302734375f, -0.32320541143417358398f, -0.14685492217540740967f, 0.03828154504299163818f, 0.08227525651454925537f, -0.40796607732772827148f, -0.05170685797929763794f, 0.07885371148586273193f, -0.05178532749414443970f, -0.05862389132380485535f, -0.02010463178157806396f, -0.05960055440664291382f, 0.37879586219787597656f, -0.01794901862740516663f, 0.40283650159835815430f, -0.05179939046502113342f, 0.13708776235580444336f, -0.11736872792243957520f, -0.04345916211605072021f, 0.03292182087898254395f, 0.06742718815803527832f, 0.35809561610221862793f, 0.05062743276357650757f, -0.05307353287935256958f, -0.40694177150726318359f, -0.00432952819392085075f, 0.43675786256790161133f, -0.05487883463501930237f, 0.08238750696182250977f, 0.02156054601073265076f, 0.02877223491668701172f, -0.06771855056285858154f, -0.11477720737457275391f, 0.34126234054565429688f, -0.40889954566955566406f},
  {-0.03002942539751529694f, 0.04852272197604179382f, 0.03776324540376663208f, 0.01452810689806938171f, 0.05346551910042762756f, 0.06583112478256225586f, -0.01353991962969303131f, 0.01197289302945137024f, -0.04512799531221389771f, -0.08942589908838272095f, -0.07331801950931549072f, -0.05699375271797180176f, 0.06354969739913940430f, 0.03370179980993270874f, -0.00505202263593673706f, 0.05938661843538284302f, -0.04285863786935806274f, -0.00927524641156196594f, -0.06653989851474761963f, -0.00497239688411355019f, 0.06575545668601989746f, 0.01482826098799705505f, -0.00210157455876469612f, -0.01149354875087738037f, -0.02416930347681045532f, 0.06347188353538513184f, 0.01046148687601089478f, -0.06532552838325500488f, -0.06712412834167480469f, 0.02046230435371398926f, 0.07391051948070526123f, -0.05909419059753417969f, 0.03679410368204116821f, 0.02174020931124687195f, -0.07250638306140899658f, 0.04897953569889068604f, -0.00714441202580928802f, -0.06711579114198684692f, 0.00602695718407630920f, -0.08076477795839309692f, 0.04004989936947822571f, 0.03300945460796356201f, -0.04597990959882736206f, -0.07806205749511718750f, -0.03588207811117172241f, -0.09398610144853591919f, -0.01678242161870002747f, -0.02358208596706390381f, -0.03108570724725723267f, -0.06474587321281433105f, -0.01680147275328636169f, -0.07668533921241760254f, 0.01862158253788948059f, 0.06920956075191497803f, -0.05788361281156539917f, -0.02449391782283782959f, -0.05118551850318908691f, 0.04898303747177124023f, -0.06955295801162719727f, 0.03141926229000091553f, 0.04376777261495590210f, -0.03998751193284988403f, 0.01869415119290351868f, 0.06900739669799804688f, -0.05542786419391632080f, 0.04885690659284591675f, -0.00105216260999441147f, 0.03409352898597717285f, -0.07678948342800140381f, -0.00575304217636585236f, 0.02923384867608547211f, 0.07234278321266174316f, -0.04735833033919334412f, 0.07594285905361175537f, -0.01594599150121212006f, -0.07528634369373321533f, 0.00207068724557757378f, -0.01271780766546726227f, -0.06432911753654479980f, 0.07291379570960998535f, -0.07767294347286224365f, -0.04329910874366760254f, 0.00445266813039779663f, -0.03704398125410079956f, 0.05824884772300720215f, 0.07116517424583435059f, 0.07167698442935943604f, 0.02848950400948524475f, 0.08162693679332733154f, 0.00000494221058033872f, -0.02028246968984603882f, 0.05563681572675704956f, -0.01474120467901229858f, -0.09663431346416473389f, 0.07507833838462829590f, 0.06626391410827636719f, -0.01017612032592296600f, 0.01137789897620677948f, 0.03107285872101783752f, 0.06625467538833618164f, -0.07323724031448364258f, 0.03744495660066604614f, -0.07448908686637878418f, -0.01411002129316329956f, 0.05308485031127929688f, 0.01738882809877395630f, -0.06451219320297241211f, -0.01112493127584457397f, -0.01739820837974548340f, 0.03148611634969711304f, -0.06018689274787902832f, -0.06301059573888778687f, 0.01606949418783187866f, 0.04792505502700805664f, -0.03074825555086135864f, 0.05555003881454467773f, -0.01161858066916465759f, -0.05317004024982452393f, -0.00353696150705218315f, -0.04599937796592712402f, -0.04856461286544799805f, 0.01822979375720024109f, -0.00595744233578443527f, -0.07816653698682785034f, -0.05703408643603324890f, -0.08641494810581207275f, 0.02011238411068916321f, -0.04463290423154830933f},
  {0.06175606697797775269f, -0.08653804659843444824f, -0.04711116477847099304f, -0.08013193309307098389f, 0.07909522950649261475f, -0.07315202057361602783f, -0.08600842952728271484f, -0.04652643948793411255f, 0.01461867429316043854f, 0.00722482334822416306f, 0.01112482603639364243f, -0.06405456364154815674f, -0.04485756158828735352f, -0.07101601362228393555f, 0.06971563398838043213f, 0.00901389028877019882f, 0.02002791687846183777f, -0.00672089867293834686f, -0.09251554310321807861f, 0.05490010231733322144f, 0.05521618574857711792f, -0.01288704201579093933f, 0.03664800524711608887f, -0.05531047657132148743f, 0.01363025326281785965f, 0.04686673730611801147f, -0.06843045353889465332f, -0.06254120171070098877f, -0.08581432700157165527f, 0.01700161024928092957f, -0.01697280630469322205f, -0.09246160089969635010f, 0.01654658094048500061f, 0.00282082799822092056f, 0.07803902029991149902f, 0.05823662877082824707f, -0.04458678141236305237f, 0.01331868208944797516f, -0.04794085770845413208f, -0.03827177733182907104f, 0.00672314362600445747f, -0.00738460198044776917f, 0.04851136356592178345f, -0.03295492008328437805f, 0.01527320407330989838f, 0.02899959869682788849f, 0.02592089772224426270f, -0.06389653682708740234f, 0.06708678603172302246f, 0.04686233401298522949f, -0.02301383949816226959f, 0.00743560492992401123f, 0.04326409101486206055f, 0.04319477826356887817f, -0.02004643157124519348f, -0.00182550051249563694f, -0.08667151629924774170f, -0.02044846490025520325f, 0.03286366164684295654f, 0.00912574678659439087f, -0.05151358991861343384f, 0.01136701460927724838f, -0.04944840073585510254f, -0.02561548352241516113f, -0.08381506800651550293f, 0.05808656662702560425f, -0.04627727717161178589f, 0.04182722419500350952f, -0.09877244383096694946f, -0.07779456675052642822f, -0.07504427433013916016f, 0.02429533749818801880f, 0.06653670966625213623f, 0.03446269780397415161f, -0.04061939567327499390f, -0.05673241615295410156f, 0.02834878861904144287f, -0.10932347178459167480f, -0.09512121230363845825f, 0.07506690919399261475f, 0.00381376314908266068f, -0.00003385423042345792f, -0.06463266909122467041f, 0.06466495245695114136f, -0.02733590453863143921f, 0.01782469078898429871f, -0.09157504141330718994f, -0.01357822120189666748f, 0.02555235847830772400f, -0.00963194668292999268f, -0.00395965855568647385f, 0.03759183734655380249f, 0.02355035208165645599f, 0.04056016355752944946f, -0.02879804745316505432f, -0.05839181691408157349f, -0.02712452225387096405f, -0.00912165455520153046f, 0.05318785458803176880f, 0.06243460625410079956f, 0.01052189804613590240f, 0.07914157211780548096f, 0.04410031437873840332f, -0.05340827256441116333f, -0.01095629855990409851f, -0.02813156694173812866f, -0.01951223611831665039f, 0.05626188218593597412f, 0.01966211199760437012f, -0.07724539935588836670f, -0.04113189876079559326f, 0.02778157964348793030f, -0.05274759232997894287f, -0.03726185858249664307f, -0.01385186426341533661f, 0.00990941468626260757f, -0.10800477862358093262f, -0.01829987764358520508f, 0.05967816710472106934f, 0.01556852646172046661f, -0.02351176366209983826f, -0.03786981850862503052f, -0.02069866657257080078f, -0.03329915925860404968f, -0.03490749001502990723f, 0.02386001497507095337f, -0.03081116452813148499f, 0.02904800325632095337f},
  {0.06321296095848083496f, 0.00950075313448905945f, 0.04638531059026718140f, -0.07171910256147384644f, 0.08367894589900970459f, -0.08104468882083892822f, -0.03117525018751621246f, 0.04809828847646713257f, -0.06763592362403869629f, 0.02907193452119827271f, -0.06500313431024551392f, -0.01427794061601161957f, -0.00257911346852779388f, 0.05593021959066390991f, -0.08753190934658050537f, 0.06101341545581817627f, -0.07743458449840545654f, 0.01294030807912349701f, -0.00928550120443105698f, -0.01939686760306358337f, 0.01289853267371654510f, -0.04381123930215835571f, -0.01647463068366050720f, 0.07783659547567367554f, -0.09449946880340576172f, -0.08981987833976745605f, -0.00137790385633707047f, -0.07275524735450744629f, 0.04207275807857513428f, -0.07378235459327697754f, -0.02496772632002830505f, 0.06640417128801345825f, 0.06703568249940872192f, -0.06224101036787033081f, 0.02284336648881435394f, -0.05921837687492370605f, 0.00744828954339027405f, 0.00101245194673538208f, -0.03224349021911621094f, -0.03703562915325164795f, 0.04074085503816604614f, -0.07629284262657165527f, 0.02536421269178390503f, -0.03026070632040500641f, -0.06112661212682723999f, 0.04786540567874908447f, 0.00141534488648176193f, 0.07289475202560424805f, -0.04779583960771560669f, 0.06137179210782051086f, -0.07376360148191452026f, -0.01176433637738227844f, -0.01797018758952617645f, -0.00035604889853857458f, -0.06875862926244735718f, 0.08114396780729293823f, -0.00612529227510094643f, -0.07326763868331909180f, 0.04958194494247436523f, -0.07480109483003616333f, -0.08577498793601989746f, 0.04781831055879592896f, 0.08069030940532684326f, 0.07628209888935089111f, 0.00534605234861373901f, -0.07130011916160583496f, -0.08468848466873168945f, -0.05994094163179397583f, 0.05074661225080490112f, 0.01888199336826801300f, -0.03237076103687286377f, -0.04118373990058898926f, -0.04689435288310050964f, -0.08242500573396682739f, -0.01273538451641798019f, -0.07382642477750778198f, -0.02260538004338741302f, -0.08058822154998779297f, 0.03792449086904525757f, 0.03065841645002365112f, -0.06931401044130325317f, 0.05832222104072570801f, -0.09209877997636795044f, 0.04666207730770111084f, 0.03116376511752605438f, -0.07916759699583053589f, -0.06507091224193572998f, 0.01002521254122257233f, 0.03533498942852020264f, -0.07479757070541381836f, 0.02516979351639747620f, -0.02931288443505764008f, -0.02398869022727012634f, -0.09115470945835113525f, 0.06465305387973785400f, 0.08171549439430236816f, 0.01847954466938972473f, -0.06825144588947296143f, -0.03742469102144241333f, 0.04840870946645736694f, -0.06585083156824111938f, -0.05575497448444366455f, 0.00776182673871517181f, 0.05607452988624572754f, 0.06066105142235755920f, -0.04937590658664703369f, -0.02276162989437580109f, -0.00843287538737058640f, 0.06148212030529975891f, 0.00788663234561681747f, -0.07312298566102981567f, -0.01973620429635047913f, 0.07933296263217926025f, 0.04833962023258209229f, 0.03187165409326553345f, -0.03114646486937999725f, -0.07183524966239929199f, -0.06047669053077697754f, 0.01380370929837226868f, 0.03233975917100906372f, 0.00291020958684384823f, 0.08151368796825408936f, -0.05980231240391731262f, 0.01067137531936168671f, 0.06466510891914367676f, -0.09058076888322830200f, 0.05244295299053192139f, -0.03992463275790214539f},
  {0.31482475996017456055f, 0.23640306293964385986f, 0.36222904920578002930f, 0.19808682799339294434f, -0.09692035615444183350f, 0.15039454400539398193f, -0.01114132534712553024f, 0.03720206767320632935f, -0.14311444759368896484f, 0.05466888844966888428f, 0.14793890714645385742f, 0.08670544624328613281f, -0.01327802054584026337f, 0.27583771944046020508f, 0.17473277449607849121f, -0.16395166516304016113f, 0.18115922808647155762f, -0.46710404753684997559f, 0.08923655748367309570f, -0.00183996651321649551f, 0.17084261775016784668f, 0.05303901433944702148f, -0.06032165884971618652f, 0.07764138281345367432f, 0.17623049020767211914f, -0.17664757370948791504f, 0.38403201103210449219f, -0.45430582761764526367f, 0.07610532641410827637f, 0.46405965089797973633f, 0.10257273912429809570f, -0.22205916047096252441f, -0.03453023731708526611f, -0.17354756593704223633f, 0.01763068139553070068f, -0.00147542869672179222f, -0.28254026174545288086f, -0.13255941867828369141f, -0.03275724500417709351f, 0.29706394672393798828f, -0.31814360618591308594f, -0.17260041832923889160f, 0.18283054232597351074f, 0.31568670272827148438f, -0.25827378034591674805f, -0.19454687833786010742f, 0.34316271543502807617f, 0.00898501556366682053f, 0.05957879871129989624f, -0.16389697790145874023f, 0.03971907496452331543f, 0.07434527575969696045f, 0.15846002101898193359f, -0.11898486316204071045f, 0.29516279697418212891f, 0.14858096837997436523f, 0.41275501251220703125f, -0.53758227825164794922f, 0.22262635827064514160f, -0.31756037473678588867f, 0.09927885234355926514f, -0.01152129843831062317f, 0.01120027527213096619f, 0.20369204878807067871f, -0.16759490966796875000f, 0.02882521785795688629f, 0.14526781439781188965f, -0.12623818218708038330f, 0.35903221368789672852f, 0.07036042958498001099f, -0.02718220278620719910f, -0.20211729407310485840f, 0.14893454313278198242f, -0.00187455327250063419f, 0.31904810667037963867f, 0.24700038135051727295f, -0.24809436500072479248f, -0.12671357393264770508f, -0.35321614146232604980f, 0.09872508049011230469f, -0.14325238764286041260f, 0.05769189447164535522f, -0.27891278266906738281f, 0.05491815507411956787f, -0.21142484247684478760f, 0.01780463755130767822f, 0.12707436084747314453f, -0.02063777297735214233f, -0.19270731508731842041f, 0.05986139923334121704f, -0.48818767070770263672f, 0.07642091065645217896f, -0.15393933653831481934f, -0.08013198524713516235f, 0.15296980738639831543f, -0.18234777450561523438f, -0.19526487588882446289f, -0.03201385587453842163f, 0.28957197070121765137f, 0.33907008171081542969f, 0.25612854957580566406f, -0.11275947839021682739f, -0.25922837853431701660f, 0.02888369187712669373f, -0.35372427105903625488f, -0.31828236579895019531f, -0.38068830966949462891f, -0.10978285968303680420f, -0.07727329432964324951f, -0.12839736044406890869f, 0.26038795709609985352f, -0.18595507740974426270f, 0.04792369529604911804f, 0.19829784333705902100f, 0.03714202344417572021f, 0.07945908606052398682f, 0.14774870872497558594f, 0.15630717575550079346f, -0.34746110439300537109f, -0.00127141247503459454f, 0.11870916187763214111f, -0.05297588557004928589f, -0.06521144509315490723f, -0.29806494712829589844f, 0.43024873733520507812f, -0.36723431944847106934f, -0.26710689067840576172f, 0.21918600797653198242f},
  {-0.08982372283935546875f, -0.00776105932891368866f, -0.06579716503620147705f, -0.00731324870139360428f, -0.02601093985140323639f, -0.05344915762543678284f, -0.00215741153806447983f, -0.00201539532281458378f, -0.00497878715395927429f, -0.08417753875255584717f, -0.06887322664260864258f, 0.06754831969738006592f, -0.03720075637102127075f, 0.04694215953350067139f, -0.01605028659105300903f, -0.04391110688447952271f, -0.08638419210910797119f, -0.04927688091993331909f, 0.01133660413324832916f, -0.08392097800970077515f, -0.06655362993478775024f, 0.08138060569763183594f, 0.06309068202972412109f, -0.07503633201122283936f, 0.07060904800891876221f, 0.06886345893144607544f, -0.08527076244354248047f, -0.04306240752339363098f, -0.08711032569408416748f, 0.00888052955269813538f, 0.02842235937714576721f, -0.00285220658406615257f, -0.03062711656093597412f, -0.07133624702692031860f, -0.07171598821878433228f, 0.01084127929061651230f, 0.01232813112437725067f, -0.02321001887321472168f, 0.04100942984223365784f, -0.03590708971023559570f, -0.08423675596714019775f, -0.03693868219852447510f, 0.03192277252674102783f, -0.00855332892388105392f, 0.00875893794000148773f, -0.04397453740239143372f, -0.05708140507340431213f, 0.00754075916483998299f, -0.03373779729008674622f, -0.07157896459102630615f, -0.06644104421138763428f, -0.04151492193341255188f, -0.05455748736858367920f, -0.00137411965988576412f, -0.06403338164091110229f, -0.02220449596643447876f, -0.02466787584125995636f, 0.03611847013235092163f, -0.07434012740850448608f, -0.03767436742782592773f, -0.01214683055877685547f, 0.06290124356746673584f, 0.05667718499898910522f, -0.05380567535758018494f, -0.06482581794261932373f, 0.00028075752197764814f, 0.04841160774230957031f, 0.08550941199064254761f, -0.08167648315429687500f, 0.06063576787710189819f, -0.08206352591514587402f, -0.00304474285803735256f, -0.04984832555055618286f, 0.06271391361951828003f, 0.04354246705770492554f, -0.05020061880350112915f, -0.09061370044946670532f, -0.03691586107015609741f, -0.04386109113693237305f, -0.01708444207906723022f, -0.08974869549274444580f, 0.01423352211713790894f, -0.01397019531577825546f, -0.03057007119059562683f, -0.02216821163892745972f, 0.01197701320052146912f, 0.08429883420467376709f, 0.06487461924552917480f, -0.05863117426633834839f, -0.00372481159865856171f, 0.05394990742206573486f, 0.06393349170684814453f, -0.05000008642673492432f, 0.03619944304227828979f, 0.00679661333560943604f, 0.06748434901237487793f, -0.03513786196708679199f, -0.07801198959350585938f, 0.06087300926446914673f, 0.03454252332448959351f, 0.01400055363774299622f, -0.01775433495640754700f, -0.06293569505214691162f, -0.01046857517212629318f, 0.02431659027934074402f, -0.09594325721263885498f, -0.06265184283256530762f, -0.07838176190853118896f, 0.08209139108657836914f, 0.00538176577538251877f, 0.00576038565486669540f, -0.01859802007675170898f, -0.00229249708354473114f, 0.06304714083671569824f, -0.04759559407830238342f, 0.03515745326876640320f, -0.02446900308132171631f, -0.01408672798424959183f, 0.00088801467791199684f, -0.03170884773135185242f, 0.01054485794156789780f, 0.05594023689627647400f, -0.02420642971992492676f, 0.00270134257152676582f, 0.05970819294452667236f, 0.03270933404564857483f, -0.07038272917270660400f, -0.07040091603994369507f},
  {-0.06925985962152481079f, -0.06905245035886764526f, -0.01845883205533027649f, 0.01645603403449058533f, 0.06733499467372894287f, -0.01778913661837577820f, -0.03825676441192626953f, 0.07515764236450195312f, 0.03809862583875656128f, 0.04487489163875579834f, -0.08563674986362457275f, 0.00937655381858348846f, 0.01857198774814605713f, 0.07559297978878021240f, -0.07502889633178710938f, 0.06128327548503875732f, 0.03368294984102249146f, 0.00576562620699405670f, 0.02600414678454399109f, -0.08279186487197875977f, -0.01615511626005172729f, 0.05551633238792419434f, 0.01461412012577056885f, 0.03768578171730041504f, -0.01039504446089267731f, 0.07953022420406341553f, 0.05974784493446350098f, 0.02695965766906738281f, 0.05320290476083755493f, 0.02144450694322586060f, 0.02518867142498493195f, 0.06230184808373451233f, -0.00933906715363264084f, 0.06510309875011444092f, -0.03939627856016159058f, -0.08444139361381530762f, 0.06413869559764862061f, -0.00690401718020439148f, -0.00011568504123715684f, 0.05014656484127044678f, -0.01636475697159767151f, -0.00088145001791417599f, -0.07431563735008239746f, 0.01620076596736907959f, -0.01643329113721847534f, 0.00328094698488712311f, -0.04203662276268005371f, -0.05359902232885360718f, 0.06650575995445251465f, 0.00281046144664287567f, -0.06422404944896697998f, -0.08148753643035888672f, -0.02565740793943405151f, -0.02355494908988475800f, -0.05632750689983367920f, -0.08093503117561340332f, 0.02922188490629196167f, -0.04321374744176864624f, 0.02235366031527519226f, 0.02936929464340209961f, -0.04288595914840698242f, -0.00545122660696506500f, -0.00383105501532554626f, -0.06317650526762008667f, 0.06459914147853851318f, -0.05268847197294235229f, -0.00644344650208950043f, -0.08231413364410400391f, 0.05702403932809829712f, -0.10226586461067199707f, -0.03571442887187004089f, -0.06741890311241149902f, -0.04030603915452957153f, -0.02687222883105278015f, -0.05841252207756042480f, -0.01975820586085319519f, 0.04232569783926010132f, -0.08401742577552795410f, -0.08590422570705413818f, -0.06597845256328582764f, 0.07307200133800506592f, -0.09357807040214538574f, -0.05838023871183395386f, 0.05644960701465606689f, -0.01400800887495279312f, -0.01888165622949600220f, 0.04751796275377273560f, -0.05106521397829055786f, 0.05440062284469604492f, -0.07548543810844421387f, -0.09995462745428085327f, 0.06990854442119598389f, 0.03481023758649826050f, -0.08727064728736877441f, -0.02000457048416137695f, 0.06851863861083984375f, -0.02611647173762321472f, 0.05554552376270294189f, 0.02777734771370887756f, 0.02520884573459625244f, 0.07237742841243743896f, 0.01706266775727272034f, 0.04895201325416564941f, -0.05500202625989913940f, -0.00595228793099522591f, 0.03721530735492706299f, -0.02770233899354934692f, -0.08228679001331329346f, -0.02434170246124267578f, -0.10092782974243164062f, 0.00313132349401712418f, 0.02282650582492351532f, -0.03916154056787490845f, -0.00168135087005794048f, -0.07503149658441543579f, -0.04840353876352310181f, -0.04506132006645202637f, -0.05695793777704238892f, -0.01386552117764949799f, 0.01078854501247406006f, 0.02263322845101356506f, -0.04136922582983970642f, -0.06958879530429840088f, -0.04007138311862945557f, -0.09270952641963958740f, 0.05448515340685844421f, 0.04148568958044052124f, -0.01540972106158733368f},
  {0.04283440113067626953f, 0.38656765222549438477f, -0.16837564110755920410f, -0.47508919239044189453f, 0.00987289566546678543f, -0.02327562868595123291f, -0.00125985918566584587f, 0.01332141086459159851f, 0.28620976209640502930f, -0.22340852022171020508f, -0.39808499813079833984f, 0.19281585514545440674f, 0.05389326810836791992f, 0.06005354970693588257f, -0.33318123221397399902f, 0.01344615779817104340f, -0.22841884195804595947f, -0.05262435972690582275f, -0.38768354058265686035f, -0.06957982480525970459f, -0.01903964951634407043f, -0.16543564200401306152f, 0.12120845913887023926f, -0.11500795930624008179f, -0.25451105833053588867f, -0.14897173643112182617f, -0.14343470335006713867f, 0.20879217982292175293f, 0.02597143873572349548f, -0.24074149131774902344f, -0.00241477508097887039f, 0.48538029193878173828f, -0.45526081323623657227f, -0.05031818896532058716f, 0.06326490640640258789f, -0.01221495587378740311f, 0.16420786082744598389f, 0.48994651436805725098f, 0.01427338551729917526f, 0.12143012881278991699f, 0.37270146608352661133f, 0.08411505818367004395f, -0.40317851305007934570f, 0.05926134437322616577f, -0.12018190324306488037f, -0.05181635543704032898f, -0.44927591085433959961f, -0.16791537404060363770f, -0.00770117063075304031f, -0.09833018481731414795f, -0.22708380222320556641f, 0.32978263497352600098f, -0.18299238383769989014f, -0.20226609706878662109f, -0.08620150387287139893f, 0.01512704603374004364f, 0.02274155430495738983f, 0.26594960689544677734f, -0.44995114207267761230f, 0.15876895189285278320f, -0.49385568499565124512f, -0.07054094970226287842f, -0.29461333155632019043f, 0.13864205777645111084f, 0.27419295907020568848f, -0.13686048984527587891f, 0.31676399707794189453f, 0.34618163108825683594f, -0.27148935198783874512f, 0.19126170873641967773f, 0.12752993404865264893f, 0.44443821907043457031f, -0.25121682882308959961f, 0.08493544161319732666f, -0.50157594680786132812f, -0.18649759888648986816f, -0.21536669135093688965f, 0.20480775833129882812f, 0.50697386264801025391f, -0.27191612124443054199f, -0.02169382199645042419f, -0.34677290916442871094f, -0.36959195137023925781f, 0.09374715387821197510f, 0.39656096696853637695f, -0.00233805738389492035f, -0.12588231265544891357f, 0.09889078140258789062f, 0.19916333258152008057f, -0.16537180542945861816f, 0.22199940681457519531f, -0.11949459463357925415f, 0.07780273258686065674f, -0.46788606047630310059f, 0.03567519411444664001f, -0.41668519377708435059f, 0.42400410771369934082f, 0.22043240070343017578f, -0.06417445838451385498f, -0.35990035533905029297f, 0.19737885892391204834f, 0.01352365221828222275f, 0.17812530696392059326f, 0.29145503044128417969f, -0.08268457651138305664f, 0.04867481440305709839f, 0.02679365873336791992f, 0.28776755928993225098f, 0.11561916023492813110f, -0.24327090382575988770f, -0.08731284737586975098f, -0.24666307866573333740f, -0.13198694586753845215f, 0.37856316566467285156f, 0.02832045592367649078f, -0.33157694339752197266f, 0.21201464533805847168f, -0.12119422852993011475f, 0.22857180237770080566f, 0.07593314349651336670f, 0.19318509101867675781f, 0.40120244026184082031f, -0.41136246919631958008f, -0.09096601605415344238f, -0.01902934163808822632f, -0.29362475872039794922f, 0.02546860277652740479f, -0.20283710956573486328f},
  {0.13591742515563964844f, 0.13038346171379089355f, 0.30681943893432617188f, -0.08573709428310394287f, 0.02402380667626857758f, 0.10448250174522399902f, 0.05746468529105186462f, 0.01352644525468349457f, 0.35821330547332763672f, 0.04808163642883300781f, 0.02412701025605201721f, 0.08676591515541076660f, -0.03205892443656921387f, 0.36343121528625488281f, -0.24604669213294982910f, -0.17093726992607116699f, 0.54599785804748535156f, -0.25469768047332763672f, -0.27896475791931152344f, 0.03241925686597824097f, 0.21521982550621032715f, 0.10611395537853240967f, 0.03847096860408782959f, -0.04802916944026947021f, -0.25504368543624877930f, 0.03654429316520690918f, 0.16640648245811462402f, -0.25932300090789794922f, 0.31084775924682617188f, 0.14575111865997314453f, -0.06677317619323730469f, 0.08457686007022857666f, 0.05667706951498985291f, -0.41198575496673583984f, 0.01886938884854316711f, 0.11659544706344604492f, -0.25888675451278686523f, 0.08481898903846740723f, 0.14501172304153442383f, 0.23539784550666809082f, -0.03226076811552047729f, -0.32868349552154541016f, -0.04503351077437400818f, 0.26460865139961242676f, -0.36935469508171081543f, 0.10053704679012298584f, -0.00692560523748397827f, 0.12149795889854431152f, -0.09848587214946746826f, -0.08699886500835418701f, -0.25003290176391601562f, -0.05533942580223083496f, 0.12475509196519851685f, 0.07059559971094131470f, 0.17763760685920715332f, 0.21842744946479797363f, 0.22913241386413574219f, -0.20450459420680999756f, -0.11107175797224044800f, -0.33674567937850952148f, -0.03467900305986404419f, 0.10054247081279754639f, -0.02113494277000427246f, 0.43124967813491821289f, 0.01343243755400180817f, -0.12706789374351501465f, 0.36844009160995483398f, 0.34681576490402221680f, -0.06128915026783943176f, -0.06343497335910797119f, -0.13811571896076202393f, 0.09614764899015426636f, -0.08434204012155532837f, -0.15679553151130676270f, -0.01694158464670181274f, 0.04647041484713554382f, -0.21636454761028289795f, 0.26400944590568542480f, 0.10611984133720397949f, 0.24278821051120758057f, -0.05112414062023162842f, -0.27904480695724487305f, -0.07141742110252380371f, 0.08210666477680206299f, 0.07113653421401977539f, 0.10008985549211502075f, 0.12777239084243774414f, 0.33274257183074951172f, 0.21145874261856079102f, -0.25516316294670104980f, -0.10818397998809814453f, 0.22642782330513000488f, -0.30053845047950744629f, -0.53353393077850341797f, 0.33628970384597778320f, -0.30131274461746215820f, 0.19274663925170898438f, -0.09964687377214431763f, 0.36020612716674804688f, -0.09096464514732360840f, 0.26147645711898803711f, 0.04834942519664764404f, -0.03910787403583526611f, 0.32719540596008300781f, -0.31279784440994262695f, -0.26876389980316162109f, -0.07172262668609619141f, 0.10691725462675094604f, -0.08827635645866394043f, -0.39396557211875915527f, 0.23663389682769775391f, 0.11823467910289764404f, 0.03972063958644866943f, 0.22192025184631347656f, -0.10817635804414749146f, 0.08257035911083221436f, 0.41374033689498901367f, 0.31042110919952392578f, 0.09543259441852569580f, -0.07728289067745208740f, 0.09103311598300933838f, 0.34863963723182678223f, 0.05481857806444168091f, -0.17320482432842254639f, 0.22942411899566650391f, -0.31588426232337951660f, -0.34476280212402343750f, 0.25635790824890136719f},
  {-0.02103656344115734100f, -0.02739798650145530701f, 0.00867632869631052017f, -0.00094520259881392121f, 0.07832782715559005737f, 0.03084442950785160065f, -0.09096314013004302979f, 0.03485418111085891724f, 0.05672081559896469116f, 0.03822886198759078979f, -0.05525288730859756470f, 0.06027071923017501831f, 0.07804711163043975830f, -0.00154307892080396414f, -0.05082911998033523560f, -0.00511374231427907944f, -0.03480456024408340454f, 0.04203903302550315857f, -0.06337801367044448853f, -0.02804840728640556335f, -0.04968340694904327393f, 0.03213115781545639038f, 0.02687710709869861603f, -0.09460637718439102173f, 0.01321688853204250336f, -0.06359849870204925537f, 0.01649100892245769501f, 0.06144118309020996094f, -0.00189627136569470167f, -0.06332431733608245850f, -0.05088681355118751526f, 0.07434686273336410522f, -0.05319762974977493286f, -0.03498277068138122559f, -0.09723802655935287476f, 0.01184247620403766632f, 0.03712740913033485413f, -0.01650723628699779510f, -0.09780248254537582397f, -0.02968026138842105865f, -0.02838338539004325867f, -0.01676355674862861633f, -0.07618962228298187256f, -0.00477967597544193268f, 0.03131522238254547119f, 0.06646755337715148926f, 0.05109801143407821655f, -0.04706385731697082520f, -0.01368487719446420670f, -0.06305747479200363159f, 0.00720250932499766350f, 0.04029523581266403198f, -0.00009713117469800636f, -0.07093231379985809326f, -0.08019027858972549438f, -0.04582725092768669128f, -0.07839462161064147949f, 0.01029962953180074692f, -0.03602379560470581055f, -0.07071295380592346191f, -0.09497184306383132935f, -0.07469665259122848511f, 0.02184368483722209930f, -0.06322448700666427612f, -0.04545194655656814575f, 0.06979835033416748047f, -0.03389208763837814331f, 0.01912967674434185028f, 0.06846109032630920410f, -0.04232814535498619080f, -0.04431692510843276978f, 0.04808124899864196777f, -0.00320944027043879032f, -0.07634144276380538940f, -0.05494832247495651245f, 0.00929886847734451294f, 0.04552384838461875916f, 0.07489582896232604980f, 0.05900580435991287231f, 0.02029402554035186768f, -0.03331440687179565430f, 0.00281496532261371613f, 0.01193180587142705917f, -0.01339768711477518082f, -0.09693667292594909668f, -0.01564988493919372559f, -0.06654976308345794678f, -0.02577899210155010223f, 0.02386561222374439240f, 0.02157749421894550323f, 0.05837500840425491333f, 0.06349324434995651245f, -0.00418142229318618774f, -0.02619678713381290436f, -0.01981550827622413635f, -0.06976089626550674438f, 0.04301656410098075867f, 0.04850593581795692444f, 0.05400674045085906982f, -0.08363239467144012451f, -0.05084227025508880615f, 0.00991047639399766922f, -0.00774909323081374168f, -0.07773056626319885254f, 0.04820526018738746643f, 0.01569763384759426117f, -0.08360884338617324829f, -0.09324577450752258301f, -0.06379805505275726318f, -0.07844263315200805664f, 0.07466916739940643311f, -0.01533218100666999817f, -0.02735540270805358887f, 0.03135008364915847778f, -0.07720803469419479370f, 0.06613241881132125854f, 0.07211186736822128296f, 0.02384637109935283661f, 0.06374583393335342407f, 0.07095914334058761597f, -0.06444565951824188232f, -0.02483472228050231934f, -0.05689858272671699524f, 0.01039109472185373306f, -0.00838517770171165466f, 0.00382067635655403137f, -0.05955171957612037659f, 0.04189867153763771057f},
  {-0.20029784739017486572f, 0.30648845434188842773f, 0.24590134620666503906f, 0.36919498443603515625f, -0.00875159353017807007f, 0.17229351401329040527f, 0.04263179376721382141f, 0.01709273084998130798f, 0.09400773048400878906f, -0.10982421040534973145f, 0.36001908779144287109f, 0.09505926072597503662f, -0.03783064335584640503f, 0.09876290708780288696f, 0.08974045515060424805f, -0.34041008353233337402f, 0.00830251257866621017f, -0.04977089539170265198f, -0.00828821025788784027f, 0.02453050762414932251f, 0.42687448859214782715f, 0.35320085287094116211f, 0.03731639683246612549f, 0.06087562441825866699f, -0.17267417907714843750f, -0.07994543015956878662f, 0.08818883448839187622f, -0.21138297021389007568f, 0.45345342159271240234f, 0.32180279493331909180f, -0.37818801403045654297f, -0.31687724590301513672f, -0.19527225196361541748f, -0.37360480427742004395f, 0.10275856405496597290f, 0.38377335667610168457f, -0.36669248342514038086f, -0.22674234211444854736f, 0.04519479721784591675f, -0.05316586047410964966f, -0.40977555513381958008f, -0.30077850818634033203f, 0.25282734632492065430f, -0.04955746233463287354f, 0.00193075952120125294f, 0.20345863699913024902f, 0.22692149877548217773f, -0.03073757886886596680f, -0.04231967031955718994f, -0.05362159386277198792f, -0.25963255763053894043f, 0.03339785337448120117f, -0.22468565404415130615f, -0.13642382621765136719f, 0.30097115039825439453f, 0.13129855692386627197f, -0.05564674735069274902f, -0.44761946797370910645f, 0.21897859871387481689f, -0.27721968293190002441f, 0.34522500634193420410f, 0.35279345512390136719f, 0.00565245281904935837f, 0.17313045263290405273f, -0.38133218884468078613f, -0.16191197931766510010f, -0.26280432939529418945f, 0.10718316584825515747f, 0.24658861756324768066f, 0.14430344104766845703f, 0.06482864916324615479f, -0.08022271096706390381f, 0.34761151671409606934f, 0.04603615403175354004f, 0.15563547611236572266f, -0.06064936891198158264f, 0.24027422070503234863f, 0.03184331953525543213f, -0.33128869533538818359f, -0.09110996127128601074f, 0.15592324733734130859f, 0.19465336203575134277f, -0.16672123968601226807f, 0.12913629412651062012f, -0.22582799196243286133f, 0.10560708492994308472f, 0.33251205086708068848f, 0.14637812972068786621f, -0.04541840776801109314f, -0.05733981728553771973f, -0.15851978957653045654f, 0.28890874981880187988f, -0.43711107969284057617f, -0.25659164786338806152f, 0.40449541807174682617f, 0.14946702122688293457f, -0.00760869262740015984f, 0.07520867884159088135f, 0.29828727245330810547f, -0.01007494516670703888f, 0.02951847761869430542f, -0.03360645473003387451f, 0.06261333823204040527f, 0.10467992722988128662f, 0.08357436954975128174f, -0.24705955386161804199f, 0.07576783001422882080f, -0.35932815074920654297f, 0.04293953627347946167f, -0.14264562726020812988f, 0.20307689905166625977f, -0.00627398258075118065f, 0.02966379001736640930f, -0.23574018478393554688f, -0.37042236328125000000f, -0.02265079692006111145f, 0.15191774070262908936f, 0.35382834076881408691f, 0.06536518037319183350f, -0.28172618150711059570f, 0.33789980411529541016f, -0.18834665417671203613f, -0.21067301928997039795f, 0.15420997142791748047f, 0.11614264547824859619f, 0.04576910287141799927f, -0.66385543346405029297f, 0.36731100082397460938f},
  {0.13616278767585754395f, 0.35151308774948120117f, 0.33691710233688354492f, -0.08715006709098815918f, -0.03171712905168533325f, 0.10276323556900024414f, -0.07459019124507904053f, -0.05906524881720542908f, 0.36812978982925415039f, -0.06854472309350967407f, -0.03528791666030883789f, 0.26425406336784362793f, -0.13179548084735870361f, 0.16745212674140930176f, -0.22227111458778381348f, -0.24798162281513214111f, -0.15301012992858886719f, -0.34347707033157348633f, -0.30504369735717773438f, 0.02605574578046798706f, 0.35407215356826782227f, 0.15855020284652709961f, -0.05744142830371856689f, 0.09983439743518829346f, -0.32121914625167846680f, -0.21653687953948974609f, 0.09523817896842956543f, -0.17355880141258239746f, 0.30620682239532470703f, 0.22546550631523132324f, -0.18934142589569091797f, 0.05511500313878059387f, -0.19592700898647308350f, -0.39751967787742614746f, 0.03388039767742156982f, 0.13567094504833221436f, -0.33213621377944946289f, 0.11288905143737792969f, 0.07925923913717269897f, 0.36780628561973571777f, 0.03512939438223838806f, -0.23465132713317871094f, 0.01003455184400081635f, 0.20823177695274353027f, -0.41571694612503051758f, 0.02492578141391277313f, -0.07242558151483535767f, -0.03370275720953941345f, 0.00117743748705834150f, -0.05569902062416076660f, -0.33382546901702880859f, 0.31900531053543090820f, -0.00793397054076194763f, -0.16159082949161529541f, 0.19751821458339691162f, 0.10413363575935363770f, 0.22920291125774383545f, -0.28385281562805175781f, -0.12436498701572418213f, -0.30976021289825439453f, -0.08490604162216186523f, 0.10087092965841293335f, -0.15369489789009094238f, 0.36494264006614685059f, -0.07164978235960006714f, -0.02258360944688320160f, 0.31627297401428222656f, 0.36497879028320312500f, -0.02337445691227912903f, 0.22474336624145507812f, -0.10424874722957611084f, 0.11446458101272583008f, 0.05136553570628166199f, 0.13901028037071228027f, -0.00609852932393550873f, -0.01393140107393264771f, -0.24238449335098266602f, 0.24985358119010925293f, 0.01619288139045238495f, 0.23834854364395141602f, 0.03096521645784378052f, -0.29753488302230834961f, -0.33670434355735778809f, 0.04381022602319717407f, 0.07173517346382141113f, 0.07083369791507720947f, 0.14791566133499145508f, 0.11436229944229125977f, 0.17091825604438781738f, -0.20219659805297851562f, -0.15196041762828826904f, 0.20995703339576721191f, -0.42128604650497436523f, -0.58408105373382568359f, 0.39036256074905395508f, -0.34586083889007568359f, 0.21216890215873718262f, 0.42117974162101745605f, 0.27805840969085693359f, -0.17864836752414703369f, 0.36473751068115234375f, 0.13115182518959045410f, 0.17568862438201904297f, 0.30277395248413085938f, -0.25697737932205200195f, -0.30360269546508789062f, -0.09417845308780670166f, 0.05976032838225364685f, 0.01746057718992233276f, -0.37682217359542846680f, 0.16261434555053710938f, -0.63288259506225585938f, -0.05320360511541366577f, 0.24276211857795715332f, -0.11186991631984710693f, -0.01180576160550117493f, 0.38597387075424194336f, 0.30622309446334838867f, 0.12641075253486633301f, -0.05812297016382217407f, 0.32466286420822143555f, 0.32223415374755859375f, -0.49811083078384399414f, -0.27905869483947753906f, 0.31799501180648803711f, -0.40408754348754882812f, -0.44236558675765991211f, 0.19368413090705871582f},
  {-0.00987181253731250763f, -0.01691902428865432739f, 0.00491704838350415230f, -0.06052383780479431152f, -0.06511695683002471924f, 0.07725919038057327271f, -0.02049363031983375549f, 0.06889668852090835571f, -0.00726535497233271599f, 0.04847007989883422852f, 0.01967588439583778381f, 0.04487486556172370911f, -0.09355503320693969727f, 0.07081098854541778564f, -0.00523409573361277580f, 0.02933919057250022888f, -0.00801856257021427155f, 0.02999170310795307159f, -0.07046373933553695679f, -0.05533351749181747437f, -0.07215366512537002563f, -0.08489225804805755615f, 0.00640758639201521873f, -0.09225501865148544312f, 0.00643175840377807617f, -0.03597031533718109131f, -0.05019585788249969482f, -0.08084286749362945557f, 0.04316117614507675171f, -0.08419074863195419312f, -0.01197696942836046219f, 0.05044332891702651978f, -0.04894835129380226135f, -0.06620058417320251465f, 0.07394351065158843994f, -0.09027493745088577271f, 0.02519699558615684509f, 0.05046026408672332764f, 0.01547694206237792969f, -0.03339267522096633911f, -0.04412585496902465820f, -0.06352336704730987549f, 0.04849007725715637207f, 0.06287374347448348999f, -0.02372744679450988770f, 0.05171448737382888794f, 0.05125468969345092773f, -0.03433188050985336304f, 0.03308936208486557007f, 0.04905280470848083496f, 0.05694918334484100342f, -0.02232419140636920929f, -0.05433530360460281372f, 0.04305240884423255920f, 0.01685593836009502411f, -0.04269567877054214478f, -0.01441046409308910370f, -0.00084373593563213944f, -0.03214579075574874878f, -0.07249680906534194946f, 0.03709424659609794617f, -0.04365799576044082642f, -0.04827018827199935913f, -0.03209023922681808472f, 0.04107217490673065186f, 0.05579730123281478882f, -0.01433057896792888641f, -0.07939986139535903931f, -0.05672426521778106689f, -0.07428479939699172974f, 0.00378235336393117905f, 0.07684152573347091675f, -0.06282317638397216797f, -0.07681760191917419434f, 0.06780420988798141479f, 0.00619885977357625961f, 0.00150858378037810326f, -0.05861502140760421753f, -0.04561813175678253174f, -0.07647668570280075073f, 0.02770903147757053375f, 0.06534150987863540649f, 0.03753479570150375366f, -0.03463295102119445801f, 0.03241296112537384033f, 0.05214660614728927612f, -0.05772274732589721680f, 0.00371447019279003143f, -0.08295051008462905884f, -0.04324317723512649536f, 0.03558768332004547119f, 0.00924656353890895844f, -0.04901233315467834473f, -0.04631035029888153076f, -0.04986124485731124878f, 0.00087526603601872921f, 0.01462477445602416992f, -0.03699237853288650513f, 0.04189397394657135010f, -0.00045447709271684289f, -0.00841584987938404083f, -0.03876210749149322510f, 0.07233267277479171753f, 0.07204583287239074707f, 0.07636459916830062866f, -0.01606073603034019470f, -0.03201907128095626831f, 0.03608867526054382324f, 0.05520794168114662170f, 0.03727557510137557983f, 0.06210922822356224060f, 0.05702232569456100464f, -0.03419013321399688721f, -0.08843005448579788208f, 0.05761866644024848938f, 0.02956417389214038849f, -0.06414093077182769775f, -0.08323172479867935181f, -0.04077494889497756958f, -0.09249807149171829224f, 0.00707507506012916565f, -0.00606883363798260689f, 0.00709035666659474373f, 0.05608566477894783020f, -0.00518080266192555428f, -0.01045407727360725403f, -0.02373533509671688080f, 0.03184426575899124146f},
  {-0.47245875000953674316f, 0.22221080958843231201f, -0.57215148210525512695f, -0.20741596817970275879f, 0.07570677995681762695f, -0.14214250445365905762f, -0.06389634311199188232f, 0.05816525593400001526f, 0.01446867920458316803f, -0.12631230056285858154f, -0.09596478939056396484f, 0.15515971183776855469f, 0.03038126602768898010f, 0.02302891016006469727f, -0.04826021194458007812f, 0.03761622682213783264f, 0.04822631552815437317f, 0.42534476518630981445f, -0.10355893522500991821f, 0.00758240791037678719f, -0.15818682312965393066f, 0.00225586490705609322f, 0.01471573859453201294f, -0.01120361220091581345f, -0.14218063652515411377f, -0.01645337045192718506f, -0.32877665758132934570f, 0.40748345851898193359f, -0.17944972217082977295f, -0.38205784559249877930f, -0.23022696375846862793f, 0.10727933049201965332f, -0.08268462121486663818f, 0.08531694114208221436f, -0.04963372275233268738f, 0.21437872946262359619f, 0.39307856559753417969f, 0.22514928877353668213f, 0.05437564849853515625f, -0.46536177396774291992f, 0.29452317953109741211f, 0.19794502854347229004f, -0.20584568381309509277f, -0.44753664731979370117f, 0.43181157112121582031f, 0.24973773956298828125f, -0.32910883426666259766f, -0.20754885673522949219f, -0.00823593512177467346f, -0.08796118944883346558f, -0.22303882241249084473f, 0.07771448791027069092f, -0.48761659860610961914f, 0.08412103354930877686f, -0.35097587108612060547f, 0.15802493691444396973f, -0.34591311216354370117f, 0.39398026466369628906f, -0.24938169121742248535f, 0.49179923534393310547f, -0.27115118503570556641f, 0.07124470174312591553f, -0.11478468775749206543f, -0.17443102598190307617f, 0.15186142921447753906f, -0.08596762269735336304f, -0.31789466738700866699f, 0.10257233679294586182f, -0.38201081752777099609f, 0.12779980897903442383f, 0.07855761796236038208f, 0.32129192352294921875f, -0.01071290392428636551f, 0.16494998335838317871f, -0.36681437492370605469f, -0.19631165266036987305f, 0.25415652990341186523f, 0.01878311671316623688f, 0.33466488122940063477f, 0.02023859694600105286f, 0.32668191194534301758f, 0.11583656817674636841f, -0.20310589671134948730f, 0.08483597636222839355f, 0.16609302163124084473f, -0.00084096146747469902f, -0.12449295818805694580f, -0.09540008008480072021f, 0.19848178327083587646f, 0.05013468861579895020f, 0.40543234348297119141f, -0.11170701682567596436f, 0.33873617649078369141f, -0.05635387822985649109f, -0.03152494132518768311f, 0.13544148206710815430f, 0.25594002008438110352f, 0.11179469525814056396f, -0.28422498703002929688f, -0.37883567810058593750f, -0.15247124433517456055f, -0.23964509367942810059f, 0.42994701862335205078f, -0.00269503984600305557f, 0.42253893613815307617f, 0.27787902951240539551f, 0.32240247726440429688f, 0.07716317474842071533f, -0.04664266854524612427f, 0.23375156521797180176f, -0.29196289181709289551f, 0.08561776578426361084f, -0.06851492822170257568f, -0.23967604339122772217f, -0.19935058057308197021f, 0.04203621670603752136f, -0.16469380259513854980f, -0.31960213184356689453f, 0.24210903048515319824f, -0.00613683369010686874f, 0.14857862889766693115f, -0.10098359733819961548f, -0.20543834567070007324f, 0.30189692974090576172f, -0.32668811082839965820f, 0.45231264829635620117f, 0.15771666169166564941f, -0.23954394459724426270f},
  {0.06500689685344696045f, -0.10535003244876861572f, 0.08298519253730773926f, 0.02054631710052490234f, 0.07957315444946289062f, -0.03076894953846931458f, -0.04590430855751037598f, -0.00089712766930460930f, 0.02326093614101409912f, -0.04444328695535659790f, -0.17219018936157226562f, -0.01125021651387214661f, 0.00088207970838993788f, -0.10201232135295867920f, 0.02003447711467742920f, -0.09571085870265960693f, -0.16538107395172119141f, 0.02373477257788181305f, 0.02372507005929946899f, -0.15410581231117248535f, 0.08469219505786895752f, 0.00157696241512894630f, -0.10038033127784729004f, -0.09604062139987945557f, -0.00750896707177162170f, -0.06033838540315628052f, -0.04168125241994857788f, -0.05459414049983024597f, 0.06520669162273406982f, -0.12877839803695678711f, 0.02303554117679595947f, -0.06707744300365447998f, -0.06806918978691101074f, -0.05124465376138687134f, 0.05622880160808563232f, -0.06128811836242675781f, -0.06615348160266876221f, -0.08406981825828552246f, -0.11881159245967864990f, -0.06306892633438110352f, -0.02471684291958808899f, 0.00947561487555503845f, 0.01587209105491638184f, -0.03823740780353546143f, -0.00906071998178958893f, 0.05809063464403152466f, -0.08319277316331863403f, 0.06442032754421234131f, -0.05958912521600723267f, -0.07082747668027877808f, -0.02197485044598579407f, -0.06279015541076660156f, 0.11619070172309875488f, 0.08299428224563598633f, -0.07993991672992706299f, -0.02096894942224025726f, 0.01596491038799285889f, 0.00458980631083250046f, 0.08794423937797546387f, -0.10643863677978515625f, -0.00382635090500116348f, -0.05576910078525543213f, 0.03326239436864852905f, -0.04916873574256896973f, -0.00598528236150741577f, -0.09327568113803863525f, -0.01714714244008064270f, -0.06754037737846374512f, -0.08657135069370269775f, -0.09554054588079452515f, -0.12078206241130828857f, 0.00769603811204433441f, -0.04612942785024642944f, -0.01728719472885131836f, 0.06659072637557983398f, -0.03781930357217788696f, -0.02171623706817626953f, -0.05000599101185798645f, -0.03624659776687622070f, -0.06584792584180831909f, -0.00365213537588715553f, -0.08715017139911651611f, -0.00640453305095434189f, -0.03041784837841987610f, -0.07134200632572174072f, 0.01655398868024349213f, 0.01254006102681159973f, -0.00617594085633754730f, -0.17200329899787902832f, 0.08199471235275268555f, -0.07391537725925445557f, -0.00877616368234157562f, 0.01643890142440795898f, 0.11589923501014709473f, -0.08543111383914947510f, 0.03430163115262985229f, 0.02458699978888034821f, -0.00143691990524530411f, -0.01298707351088523865f, -0.10890951007604598999f, -0.10620990395545959473f, -0.04780628532171249390f, -0.07449725270271301270f, -0.06073802337050437927f, 0.00654512364417314529f, -0.06061583012342453003f, -0.08315226435661315918f, -0.04019451886415481567f, -0.16695992648601531982f, 0.02022167481482028961f, -0.05137003958225250244f, -0.05555298924446105957f, -0.05469525605440139771f, 0.01777961663901805878f, -0.10359826683998107910f, 0.01506026461720466614f, -0.05245035141706466675f, 0.06647782027721405029f, -0.17240087687969207764f, -0.02981499210000038147f, -0.09940947592258453369f, -0.03834754973649978638f, -0.04998267441987991333f, -0.04122801870107650757f, -0.09404875338077545166f, 0.10735596716403961182f, -0.01066595595329999924f, 0.00255796033889055252f},
  {-0.04678160697221755981f, -0.09079223871231079102f, 0.00296607753261923790f, -0.07583752274513244629f, -0.08951223641633987427f, 0.01027748361229896545f, -0.03202409297227859497f, -0.02260351553559303284f, -0.04552596062421798706f, -0.00673755165189504623f, 0.02051461860537528992f, 0.01465522497892379761f, -0.03137999773025512695f, -0.06840348243713378906f, -0.07562901824712753296f, -0.05712928622961044312f, 0.00734000746160745621f, 0.06112721562385559082f, 0.02721128612756729126f, 0.04654093831777572632f, 0.07125359773635864258f, 0.03877669572830200195f, 0.06776696443557739258f, 0.04002061486244201660f, 0.01277923490852117538f, 0.06434054672718048096f, 0.00799279846251010895f, 0.02981253340840339661f, -0.04223158210515975952f, -0.02705545350909233093f, 0.03957359492778778076f, 0.04791853949427604675f, -0.02448037266731262207f, -0.05523918569087982178f, 0.03225820511579513550f, 0.04820922017097473145f, -0.01848025247454643250f, -0.02077912539243698120f, 0.07075506448745727539f, 0.03592254966497421265f, -0.06409887969493865967f, -0.04346010088920593262f, -0.09771636128425598145f, 0.04654063656926155090f, -0.05603247135877609253f, -0.05925648659467697144f, -0.03496681526303291321f, -0.02562375180423259735f, -0.08120135962963104248f, 0.01854169741272926331f, -0.02573318034410476685f, -0.04977912455797195435f, -0.03629470989108085632f, -0.03729075938463211060f, 0.04275044798851013184f, -0.01738152280449867249f, -0.01565246284008026123f, -0.00501823145896196365f, -0.01161293312907218933f, -0.03716619312763214111f, 0.02088173851370811462f, -0.02171333506703376770f, -0.08383297175168991089f, -0.04269729554653167725f, 0.04984308034181594849f, 0.02507636509835720062f, 0.02193344011902809143f, 0.07344743609428405762f, 0.02817483805119991302f, -0.06677655875682830811f, 0.03490278869867324829f, -0.05177392065525054932f, 0.03617699444293975830f, 0.05965331196784973145f, 0.05863449722528457642f, 0.07254077494144439697f, -0.02455589920282363892f, -0.03498932719230651855f, -0.02340423315763473511f, -0.05575877428054809570f, -0.08935344219207763672f, -0.01664385944604873657f, 0.05372186750173568726f, 0.03135165572166442871f, -0.01423982344567775726f, 0.02922609075903892517f, -0.08659321069717407227f, -0.04658278077840805054f, 0.04180358722805976868f, -0.08055049180984497070f, -0.08976359665393829346f, 0.04950316250324249268f, 0.02478372305631637573f, -0.06353586912155151367f, -0.06879574805498123169f, -0.02251207828521728516f, -0.04886619746685028076f, 0.02377185225486755371f, -0.05717477202415466309f, 0.07807509601116180420f, -0.00614243652671575546f, -0.02429461851716041565f, -0.01764967292547225952f, -0.07950727641582489014f, -0.01922006905078887939f, 0.03172778338193893433f, -0.00207520532421767712f, -0.09047028422355651855f, -0.00192408706061542034f, -0.08137790858745574951f, -0.05998301878571510315f, 0.01849644631147384644f, -0.08808328211307525635f, -0.04131542891263961792f, 0.01423727720975875854f, 0.04542591422796249390f, 0.02760849893093109131f, -0.05595238506793975830f, -0.01652934588491916656f, -0.02143120393157005310f, -0.01777377352118492126f, -0.00584879377856850624f, -0.01385949831455945969f, 0.03029846400022506714f, 0.03721264377236366272f, 0.04711862653493881226f, 0.01893467828631401062f, 0.05200320482254028320f},
  {0.07247788459062576294f, -0.01294779777526855469f, -0.00942610856145620346f, 0.05876635015010833740f, 0.04290228709578514099f, -0.07864455878734588623f, -0.00033047236502170563f, 0.04922303184866905212f, 0.01058731786906719208f, -0.06569880992174148560f, -0.08907590806484222412f, 0.01851700246334075928f, -0.05909397453069686890f, 0.03588531166315078735f, 0.05955449491739273071f, 0.03069280087947845459f, -0.07350750267505645752f, 0.00667780358344316483f, -0.05482531338930130005f, -0.01557400543242692947f, -0.05826577171683311462f, -0.00124297698494046926f, 0.02018706128001213074f, 0.03810191899538040161f, -0.06773217022418975830f, 0.01327122654765844345f, 0.02699753269553184509f, -0.07679297775030136108f, -0.00373728945851325989f, -0.08375754952430725098f, -0.02735488675534725189f, -0.01538800075650215149f, 0.01838473044335842133f, -0.05358367413282394409f, 0.02833901159465312958f, -0.03065271675586700439f, 0.00765199121087789536f, -0.08981174975633621216f, 0.00571593642234802246f, 0.02605606801807880402f, -0.08826477825641632080f, 0.04851750284433364868f, -0.00261701876297593117f, 0.08527439832687377930f, 0.04991099983453750610f, -0.00516065536066889763f, -0.01324008777737617493f, -0.03499186784029006958f, -0.02259394153952598572f, 0.07286117970943450928f, 0.05205585062503814697f, -0.07030800729990005493f, 0.05558577179908752441f, 0.08578743040561676025f, 0.02007175050675868988f, -0.06972410529851913452f, -0.02909027598798274994f, -0.06793648004531860352f, 0.06592437624931335449f, -0.00203375727869570255f, 0.05264054238796234131f, -0.03873944655060768127f, 0.03807431459426879883f, -0.09137658774852752686f, -0.04697946459054946899f, -0.08384524285793304443f, -0.01284689828753471375f, -0.08462067693471908569f, -0.07073634862899780273f, 0.04120265692472457886f, 0.07094324380159378052f, 0.06435114145278930664f, 0.00587990600615739822f, -0.08503194153308868408f, 0.00100330775603652000f, 0.01554909162223339081f, -0.02252549678087234497f, -0.08996035158634185791f, -0.03590483218431472778f, 0.01212350092828273773f, -0.01583652198314666748f, -0.01460529118776321411f, 0.02020697481930255890f, -0.04641474783420562744f, 0.01551815681159496307f, -0.03625883162021636963f, 0.00482886005192995071f, 0.04649150371551513672f, 0.01807776093482971191f, 0.01598154939711093903f, -0.01525372639298439026f, 0.06739760935306549072f, 0.01846151798963546753f, 0.01932069472968578339f, 0.03313338756561279297f, -0.07031437009572982788f, 0.05200350284576416016f, -0.05630267411470413208f, -0.00804963521659374237f, 0.08452683687210083008f, -0.03278546407818794250f, 0.07763755321502685547f, -0.01949858665466308594f, -0.06030897423624992371f, 0.00792637933045625687f, -0.03335604071617126465f, 0.01073778606951236725f, -0.00759073998779058456f, -0.07228286564350128174f, 0.05882290378212928772f, 0.01919479668140411377f, 0.03442566841840744019f, 0.05800200626254081726f, -0.07259175926446914673f, -0.08064316213130950928f, -0.04362558200955390930f, -0.07191742956638336182f, -0.03412316739559173584f, 0.08186084032058715820f, 0.06677132844924926758f, 0.08331505954265594482f, -0.06639413535594940186f, -0.08367108553647994995f, -0.02236664295196533203f, -0.07596469670534133911f, -0.02379816211760044098f, -0.08876224607229232788f, -0.02789597027003765106f},
  {0.03191825747489929199f, -0.03484958410263061523f, -0.01078636385500431061f, -0.06600540876388549805f, -0.06140702217817306519f, -0.06514075398445129395f, 0.05081669241189956665f, -0.03224983066320419312f, -0.02241683937609195709f, 0.01561335846781730652f, 0.03102678246796131134f, 0.05317889899015426636f, -0.05797021090984344482f, -0.06192526966333389282f, -0.03488759323954582214f, 0.03608296066522598267f, 0.01286057196557521820f, 0.01382894255220890045f, 0.00368267996236681938f, 0.07637248933315277100f, 0.06782755255699157715f, 0.03968241065740585327f, -0.05567727610468864441f, -0.02866679057478904724f, 0.04317383468151092529f, 0.04987651482224464417f, 0.07024851441383361816f, -0.00182166718877851963f, -0.05676557868719100952f, -0.02691422775387763977f, -0.00964515842497348785f, 0.05841326713562011719f, -0.03594727814197540283f, -0.02011049911379814148f, 0.06431928277015686035f, -0.08206462860107421875f, 0.05688855424523353577f, 0.03724434971809387207f, -0.01820090785622596741f, -0.04850079864263534546f, 0.06003004312515258789f, -0.02560076117515563965f, 0.00353337312117218971f, 0.05623375624418258667f, -0.02552231028676033020f, -0.05250768363475799561f, 0.05702169239521026611f, 0.00588606670498847961f, -0.01767099276185035706f, 0.05398932844400405884f, -0.09039567410945892334f, 0.02205894701182842255f, -0.07195033133029937744f, 0.01263035461306571960f, -0.04124010354280471802f, 0.06292764842510223389f, -0.00789932720363140106f, 0.02268040180206298828f, -0.03738347440958023071f, -0.03034109808504581451f, 0.05852316319942474365f, 0.00220474228262901306f, -0.07663242518901824951f, 0.00176997133530676365f, -0.06340111792087554932f, -0.01500938460230827332f, -0.02676070854067802429f, -0.00322046596556901932f, 0.04394634068012237549f, 0.03962701931595802307f, 0.05993449687957763672f, -0.06396457552909851074f, 0.02401668205857276917f, -0.05509711056947708130f, -0.04064729809761047363f, 0.04036907851696014404f, -0.07580498605966567993f, -0.02461643144488334656f, 0.02774156630039215088f, -0.06117226928472518921f, -0.02493545413017272949f, -0.09180120378732681274f, -0.01827641390264034271f, -0.09320424497127532959f, -0.02456570416688919067f, -0.04021882265806198120f, 0.07270337641239166260f, -0.08290465921163558960f, -0.09821201115846633911f, -0.03357744961977005005f, -0.03437507525086402893f, 0.07503467053174972534f, -0.03719437122344970703f, 0.00509879272431135178f, -0.07076665759086608887f, 0.00536705460399389267f, -0.01182931847870349884f, 0.05303164571523666382f, -0.05063855648040771484f, -0.02906597405672073364f, 0.05143082886934280396f, -0.03904746472835540771f, -0.03281075507402420044f, -0.06308773159980773926f, -0.08106358349323272705f, 0.06784655898809432983f, 0.06253418326377868652f, -0.02375425025820732117f, -0.03681191802024841309f, 0.02148067578673362732f, 0.03465592116117477417f, -0.01425480656325817108f, -0.08526872098445892334f, -0.05006773024797439575f, -0.05984035879373550415f, -0.05907025188207626343f, 0.05635263025760650635f, 0.00012564848293550313f, 0.00860367901623249054f, 0.01802163012325763702f, -0.08562956750392913818f, 0.00306056998670101166f, -0.09501492977142333984f, -0.07918261736631393433f, -0.02187691628932952881f, 0.04908415675163269043f, -0.10160695016384124756f, -0.08224566280841827393f},
  {-0.41888672113418579102f, 0.21368108689785003662f, -0.05337833613157272339f, 0.07544275373220443726f, -0.00132647820282727480f, 0.14944720268249511719f, 0.08786057680845260620f, 0.08404036611318588257f, 0.36459872126579284668f, -0.09058701246976852417f, -0.02297112345695495605f, 0.04924374818801879883f, -0.00029746815562248230f, 0.08768428117036819458f, -0.31840765476226806641f, -0.19984906911849975586f, 0.11834487318992614746f, 0.27127486467361450195f, -0.15817007422447204590f, -0.04914513975381851196f, 0.33768218755722045898f, 0.30472844839096069336f, 0.00518345832824707031f, -0.03876807913184165955f, -0.38777419924736022949f, 0.07005441188812255859f, -0.10449868440628051758f, 0.08062917739152908325f, 0.39222532510757446289f, -0.20580434799194335938f, -0.53952884674072265625f, -0.03384513780474662781f, -0.20967605710029602051f, -0.38276988267898559570f, 0.05458573997020721436f, 0.48741334676742553711f, -0.06284767389297485352f, 0.04589410126209259033f, 0.17531533539295196533f, -0.19960108399391174316f, 0.03209950774908065796f, -0.24130737781524658203f, -0.09928561747074127197f, -0.20220187306404113770f, 0.09313843399286270142f, 0.30659419298171997070f, -0.31642132997512817383f, -0.05677617341279983521f, -0.02200773358345031738f, -0.05709689855575561523f, -0.25085717439651489258f, -0.02762005291879177094f, -0.38375619053840637207f, -0.08270084857940673828f, -0.07388966530561447144f, 0.05727913230657577515f, -0.32659995555877685547f, 0.18508633971214294434f, -0.13310077786445617676f, -0.00592197477817535400f, 0.01290928758680820465f, 0.41067981719970703125f, -0.11794588714838027954f, 0.13186998665332794189f, -0.05927401781082153320f, -0.00735179521143436432f, -0.16025954484939575195f, 0.48157644271850585938f, -0.14901886880397796631f, 0.17101615667343139648f, -0.02823388576507568359f, 0.34380698204040527344f, 0.03487065434455871582f, 0.10151705145835876465f, -0.23596134781837463379f, 0.00966743566095829010f, 0.22587010264396667480f, 0.29490488767623901367f, 0.33012080192565917969f, 0.10271631926298141479f, 0.37627804279327392578f, -0.08797772228717803955f, -0.18744614720344543457f, 0.04302676022052764893f, 0.00859194248914718628f, 0.03368956223130226135f, 0.14565876126289367676f, 0.23095370829105377197f, 0.18969371914863586426f, -0.25434345006942749023f, 0.27193558216094970703f, 0.25155726075172424316f, -0.32688289880752563477f, -0.51486855745315551758f, 0.38653838634490966797f, 0.04762909933924674988f, 0.32635226845741271973f, 0.20244121551513671875f, 0.11266915500164031982f, -0.46519416570663452148f, -0.06563547253608703613f, -0.05207535624504089355f, 0.25772446393966674805f, 0.12215486168861389160f, 0.23137614130973815918f, -0.08795893192291259766f, 0.44220036268234252930f, 0.00793009065091609955f, 0.04647867009043693542f, -0.09226161241531372070f, -0.07434234023094177246f, -0.07803049683570861816f, 0.05361074209213256836f, -0.10206454992294311523f, -0.49432545900344848633f, -0.00911254063248634338f, 0.08782768249511718750f, 0.27278232574462890625f, 0.37035709619522094727f, -0.29739636182785034180f, 0.19313019514083862305f, 0.10762267559766769409f, -0.16283336281776428223f, 0.21283006668090820312f, -0.18088954687118530273f, 0.21735125780105590820f, -0.39962661266326904297f, 0.08461678028106689453f},
  {0.05410962551832199097f, -0.04142884165048599243f, 0.07753874361515045166f, -0.06562805920839309692f, -0.08347783982753753662f, -0.09542798995971679688f, -0.08864372223615646362f, 0.06110622733831405640f, -0.00653871987015008926f, -0.03716164082288742065f, -0.01833382993936538696f, 0.02516002953052520752f, 0.01993650011718273163f, 0.01750542968511581421f, -0.08092738687992095947f, -0.09285043179988861084f, 0.00877618975937366486f, -0.01626663841307163239f, 0.04683718085289001465f, 0.02075431495904922485f, -0.09647592902183532715f, 0.04751652479171752930f, -0.05136101692914962769f, 0.00016966104158200324f, -0.08891232311725616455f, -0.01061877422034740448f, -0.04931237548589706421f, -0.02847742661833763123f, 0.02506446093320846558f, -0.06125216186046600342f, 0.09256844222545623779f, 0.05844870209693908691f, 0.07622708380222320557f, -0.08448692411184310913f, -0.04377459734678268433f, 0.00626714807003736496f, 0.02785952389240264893f, -0.04583849757909774780f, -0.02006055600941181183f, -0.04711557552218437195f, 0.01135516539216041565f, -0.06817308813333511353f, 0.04299442470073699951f, 0.07328528165817260742f, -0.03964792191982269287f, -0.01156780123710632324f, 0.01161706820130348206f, 0.07041159272193908691f, -0.00417930586263537407f, 0.02240232191979885101f, -0.01692258566617965698f, -0.05693852156400680542f, 0.02484944090247154236f, -0.03847850859165191650f, -0.02103778533637523651f, -0.08071950078010559082f, -0.07686701416969299316f, 0.04972201213240623474f, 0.02534295618534088135f, -0.12904343008995056152f, 0.05189149081707000732f, -0.05548992753028869629f, -0.08942757546901702881f, -0.03616760671138763428f, 0.03192491084337234497f, -0.06131822243332862854f, -0.13555830717086791992f, -0.00244643702171742916f, 0.01968189328908920288f, 0.04963037371635437012f, 0.04155839234590530396f, -0.09648427367210388184f, -0.07330812513828277588f, 0.04621132463216781616f, -0.01075026765465736389f, -0.09101040661334991455f, 0.05295426771044731140f, -0.14852108061313629150f, -0.10213813185691833496f, 0.02333643659949302673f, 0.06818033754825592041f, -0.03381080925464630127f, 0.04115260392427444458f, 0.01988065242767333984f, 0.03023125603795051575f, -0.03239581733942031860f, 0.00897241756319999695f, -0.08301196247339248657f, -0.03616455197334289551f, -0.04133807867765426636f, -0.00527214817702770233f, -0.03240210562944412231f, -0.08615742623805999756f, 0.06014749780297279358f, 0.05029863864183425903f, -0.06269295513629913330f, -0.08888713270425796509f, 0.01430737227201461792f, 0.00610466860234737396f, 0.05759098753333091736f, -0.08228589594364166260f, -0.07863402366638183594f, -0.06071793287992477417f, -0.10913212597370147705f, -0.06395081430673599243f, 0.00636513344943523407f, -0.04592579603195190430f, -0.05443415790796279907f, -0.08666062355041503906f, 0.05408589541912078857f, -0.01648234948515892029f, 0.03538393229246139526f, -0.07016956806182861328f, -0.02989106066524982452f, -0.04153161123394966125f, -0.05827821046113967896f, -0.11428237706422805786f, 0.01453419774770736694f, -0.03489946946501731873f, 0.01397570408880710602f, 0.01290317066013813019f, 0.04297534003853797913f, 0.04014578461647033691f, -0.08363930881023406982f, -0.01578640192747116089f, 0.04556325078010559082f, 0.03481757640838623047f, 0.01346369460225105286f},
  {0.39596593379974365234f, 0.27203345298767089844f, 0.01162654999643564224f, -0.03512924537062644958f, 0.04625060781836509705f, -0.05010078102350234985f, -0.01898479834198951721f, 0.13579614460468292236f, -0.42209202051162719727f, -0.04905057325959205627f, -0.08862823247909545898f, -0.18654240667819976807f, -0.05043048784136772156f, -0.16749626398086547852f, 0.45574599504470825195f, 0.08680024743080139160f, -0.02418685518205165863f, -0.39156571030616760254f, 0.15330895781517028809f, 0.02313750796020030975f, -0.37166422605514526367f, -0.20578685402870178223f, 0.04827546328306198120f, -0.02241567522287368774f, 0.44146820902824401855f, -0.10155183076858520508f, 0.20600530505180358887f, -0.05664380639791488647f, -0.38541352748870849609f, 0.35355043411254882812f, 0.56319969892501831055f, 0.03607401996850967407f, 0.09081182628870010376f, 0.29950037598609924316f, 0.04702513292431831360f, -0.37647286057472229004f, 0.06732854247093200684f, 0.12525650858879089355f, 0.07862752676010131836f, 0.06144545972347259521f, -0.03481686487793922424f, 0.27974700927734375000f, 0.13242202997207641602f, 0.35704523324966430664f, -0.08213080465793609619f, -0.40204015374183654785f, 0.23028457164764404297f, -0.23206675052642822266f, 0.05032974481582641602f, -0.10455983877182006836f, 0.22747941315174102783f, 0.02682477608323097229f, 0.11031372845172882080f, -0.02588836103677749634f, 0.03436512500047683716f, -0.03281112760305404663f, 0.36591595411300659180f, -0.38631480932235717773f, 0.05919007584452629089f, 0.04002355039119720459f, -0.25638931989669799805f, -0.30568772554397583008f, -0.15225976705551147461f, -0.09920123219490051270f, 0.14903776347637176514f, -0.08518808335065841675f, 0.19197565317153930664f, -0.55348944664001464844f, 0.19334983825683593750f, 0.16825872659683227539f, 0.06079086288809776306f, -0.26182976365089416504f, -0.05195283144712448120f, 0.13920491933822631836f, 0.20047622919082641602f, 0.09051559865474700928f, -0.24693857133388519287f, -0.44601321220397949219f, -0.31278032064437866211f, -0.15153619647026062012f, -0.39298072457313537598f, 0.16788595914840698242f, -0.15274441242218017578f, 0.05593536794185638428f, -0.01529747806489467621f, 0.08341991901397705078f, -0.20040076971054077148f, -0.25034570693969726562f, -0.09139708429574966431f, 0.41807180643081665039f, -0.34452325105667114258f, -0.19490787386894226074f, 0.40463799238204956055f, 0.37046545743942260742f, -0.25335013866424560547f, -0.16919296979904174805f, -0.22457298636436462402f, 0.07349458336830139160f, -0.08653413504362106323f, 0.34839829802513122559f, 0.18051183223724365234f, 0.03316699713468551636f, -0.28587186336517333984f, -0.16303107142448425293f, -0.29592612385749816895f, 0.10966590046882629395f, -0.43270695209503173828f, 0.00270201032981276512f, 0.02015003189444541931f, 0.13437063992023468018f, 0.17034891247749328613f, -0.26043501496315002441f, -0.00336475740186870098f, 0.20849023759365081787f, 0.20990218222141265869f, -0.04681340605020523071f, 0.00340977730229496956f, -0.32472741603851318359f, -0.42153072357177734375f, 0.30368924140930175781f, -0.03316546976566314697f, -0.25007340312004089355f, -0.11314593255519866943f, -0.12498678267002105713f, 0.31119748950004577637f, -0.33915588259696960449f, 0.29784074425697326660f, -0.16450354456901550293f},
  {-0.04978447407484054565f, 0.04244869202375411987f, -0.24950903654098510742f, -0.40884405374526977539f, -0.02612000331282615662f, -0.22814688086509704590f, 0.04459881410002708435f, 0.00375911872833967209f, 0.28493654727935791016f, -0.05221837013959884644f, -0.32582783699035644531f, 0.05133792012929916382f, 0.04447224736213684082f, 0.07640147209167480469f, -0.29757732152938842773f, 0.19124782085418701172f, 0.52409243583679199219f, 0.03247429430484771729f, -0.37420076131820678711f, 0.00775643158704042435f, -0.06388236582279205322f, -0.13892552256584167480f, 0.05600844323635101318f, 0.00161604885943233967f, -0.32162320613861083984f, 0.05632878839969635010f, -0.19933187961578369141f, 0.19123351573944091797f, 0.04251468554139137268f, -0.29699575901031494141f, 0.07621097564697265625f, 0.35771372914314270020f, 0.07350635528564453125f, 0.00246821204200387001f, -0.00919756665825843811f, -0.05123083293437957764f, 0.24481439590454101562f, 0.30790397524833679199f, 0.11435147374868392944f, 0.12071621417999267578f, 0.40336453914642333984f, 0.02322482317686080933f, -0.33883738517761230469f, 0.07368737459182739258f, -0.11992718279361724854f, 0.18699501454830169678f, -0.40582737326622009277f, 0.07696768641471862793f, -0.06780989468097686768f, -0.02284550294280052185f, -0.26141819357872009277f, -0.07210224121809005737f, -0.04356031492352485657f, 0.09307983517646789551f, -0.10209536552429199219f, 0.19102017581462860107f, -0.05959604680538177490f, 0.30118012428283691406f, -0.29200577735900878906f, 0.18043345212936401367f, -0.39264595508575439453f, -0.00527237355709075928f, -0.07628967612981796265f, 0.03156726807355880737f, 0.32217338681221008301f, -0.01200049556791782379f, 0.28632795810699462891f, 0.29943650960922241211f, -0.32943934202194213867f, 0.05304210633039474487f, -0.04409768432378768921f, 0.37254291772842407227f, -0.39333659410476684570f, 0.06250615417957305908f, -0.37736272811889648438f, -0.09007780253887176514f, -0.15645766258239746094f, 0.23408293724060058594f, 0.41953700780868530273f, -0.01718445867300033569f, -0.01342067308723926544f, -0.24487286806106567383f, -0.03540171682834625244f, 0.08053524792194366455f, 0.37472879886627197266f, 0.02064624242484569550f, -0.10135442018508911133f, 0.13309457898139953613f, 0.40160083770751953125f, -0.21709991991519927979f, 0.29525300860404968262f, -0.06597001850605010986f, 0.14795379340648651123f, -0.27202576398849487305f, -0.04090730845928192139f, -0.28985244035720825195f, 0.34998798370361328125f, -0.16197746992111206055f, -0.10059380531311035156f, -0.36986744403839111328f, 0.10918763279914855957f, 0.00245553208515048027f, 0.15556579828262329102f, 0.27257263660430908203f, -0.06955750286579132080f, 0.06237814947962760925f, 0.16932898759841918945f, 0.44224983453750610352f, 0.02736421674489974976f, -0.24415951967239379883f, -0.13831391930580139160f, -0.04241326451301574707f, -0.00088115409016609192f, 0.22073891758918762207f, -0.03562968969345092773f, 0.00625764206051826477f, 0.24439269304275512695f, -0.12461437284946441650f, 0.35879182815551757812f, 0.10255569219589233398f, 0.05153072625398635864f, 0.32826465368270874023f, 0.02522829174995422363f, -0.06879968941211700439f, -0.01741487905383110046f, -0.07499411702156066895f, -0.01112280692905187607f, -0.09476910531520843506f},
  {-0.00903702713549137115f, 0.01806516014039516449f, 0.00281477440148591995f, 0.00688876677304506302f, -0.06786605715751647949f, -0.08032143115997314453f, -0.06468255817890167236f, 0.00345328752882778645f, 0.06877160072326660156f, -0.09115031361579895020f, -0.09453028440475463867f, -0.04656074941158294678f, -0.05620065331459045410f, 0.01725957542657852173f, -0.08222461491823196411f, 0.00535657908767461777f, -0.00708723627030849457f, -0.05358708649873733521f, -0.02919424884021282196f, 0.06016836315393447876f, 0.02678754553198814392f, 0.02818022482097148895f, -0.07803602516651153564f, -0.00146989035420119762f, -0.03432723879814147949f, 0.03460060060024261475f, -0.04901516437530517578f, 0.04319140315055847168f, -0.09340511262416839600f, 0.01285152696073055267f, 0.04581853374838829041f, 0.04944466054439544678f, 0.04593793302774429321f, 0.03087272122502326965f, 0.03818466514348983765f, -0.02460778504610061646f, 0.04103578627109527588f, -0.06291730701923370361f, -0.06011952459812164307f, -0.03806812316179275513f, 0.07918614149093627930f, -0.05028782039880752563f, 0.05453862622380256653f, -0.06915555894374847412f, 0.07519976794719696045f, 0.06714424490928649902f, -0.01728229038417339325f, 0.05886285379528999329f, -0.06164752691984176636f, -0.08556014299392700195f, 0.06618177890777587891f, -0.03169623017311096191f, 0.01344145648181438446f, -0.09096473455429077148f, 0.06780625879764556885f, 0.01664086803793907166f, -0.03210490196943283081f, -0.01802963390946388245f, -0.03328634798526763916f, -0.05556092411279678345f, 0.01858706027269363403f, -0.00612760055810213089f, -0.02913296222686767578f, -0.06439735740423202515f, -0.07279907166957855225f, -0.09095752239227294922f, 0.02150318771600723267f, 0.04168321192264556885f, 0.04244692251086235046f, 0.02245311625301837921f, -0.08590445667505264282f, -0.06441152840852737427f, -0.07435540854930877686f, 0.02824002131819725037f, -0.05781341716647148132f, -0.08538152277469635010f, 0.04826161637902259827f, 0.01032172143459320068f, 0.06446629762649536133f, 0.02151073887944221497f, -0.00625827442854642868f, 0.03288394957780838013f, -0.00628013722598552704f, 0.07573413848876953125f, 0.03729129582643508911f, -0.09177576005458831787f, -0.08402578532695770264f, 0.06250058114528656006f, -0.09515534341335296631f, 0.07864518463611602783f, -0.06355056166648864746f, -0.01044568419456481934f, -0.09492465853691101074f, -0.03210233151912689209f, 0.02136938460171222687f, -0.06123875826597213745f, 0.02529910206794738770f, 0.00701804459095001221f, -0.05579779297113418579f, -0.01020688749849796295f, -0.10318964719772338867f, -0.03353971242904663086f, 0.06824147701263427734f, 0.06469935178756713867f, -0.00670137535780668259f, 0.04394352436065673828f, -0.01387342624366283417f, -0.08833966404199600220f, -0.04654866456985473633f, -0.02259679511189460754f, -0.00338369724340736866f, 0.04898387193679809570f, 0.02491398341953754425f, -0.00533672422170639038f, 0.01899450831115245819f, -0.06392200291156768799f, -0.05767463147640228271f, -0.06599146127700805664f, -0.01767825521528720856f, -0.04659474641084671021f, -0.06837359070777893066f, 0.03514473140239715576f, 0.05216548591852188110f, -0.06921648979187011719f, 0.00605949759483337402f, 0.07268415391445159912f, 0.00407666899263858795f, 0.07105480879545211792f},
