#include "weights.h"

const fixed tensor_mod_fc_0_0_bias[256] = {0.004815, -0.026386, 0.011681, -0.007717, -0.028214, -0.027724, -0.048170, 0.030101, 0.001172, 0.037247, 0.015733, 0.035009, 0.030257, 0.007222, 0.001575, 0.031564, 0.020087, -0.044736, 0.026335, 0.006136, 0.019243, 0.009617, 0.025434, -0.001432, -0.075599, 0.053819, -0.054377, -0.053254, 0.032128, -0.038107, 0.036554, 0.029122, 0.024518, 0.011958, -0.000454, -0.059889, 0.028999, -0.056965, -0.054121, 0.014516, -0.009199, 0.027521, -0.047171, 0.004689, -0.082300, 0.017890, 0.009535, -0.045240, 0.002303, -0.017457, 0.030623, 0.031184, 0.023474, 0.027425, 0.013974, -0.053524, 0.034314, -0.058084, -0.035809, -0.022416, -0.053725, 0.025081, 0.032046, 0.023083, -0.006850, 0.004345, 0.017419, 0.024357, 0.013250, 0.039240, 0.029481, 0.011927, 0.035671, 0.023260, -0.052204, 0.004394, 0.039633, -0.012535, -0.076837, 0.016160, -0.033192, -0.052344, -0.003344, 0.022040, 0.006508, 0.022299, -0.013385, -0.046581, 0.007289, -0.050559, 0.021905, 0.034282, 0.005437, -0.044630, 0.023321, 0.026221, -0.001470, 0.041701, -0.009462, -0.001731, -0.052446, -0.059747, -0.037955, 0.038435, 0.034924, 0.046400, -0.047336, 0.026848, 0.005617, -0.023965, -0.056073, -0.000817, -0.026471, 0.035720, -0.023345, -0.032171, 0.036646, 0.020595, 0.014177, 0.027887, 0.018574, -0.030332, -0.057721, -0.018985, 0.019564, 0.023732, 0.031126, 0.022252, -0.000297, -0.027640, -0.062004, -0.041189, 0.007095, 0.025892, 0.004513, 0.006838, -0.015607, -0.013470, 0.022141, 0.023289, -0.036990, -0.084551, -0.005154, 0.031887, 0.020279, 0.019683, -0.008648, -0.021370, 0.044046, 0.012675, 0.026274, 0.019367, 0.008761, 0.031543, 0.039344, 0.006382, -0.051064, 0.004204, 0.020751, 0.007982, 0.037550, 0.039819, 0.000493, 0.011316, 0.024840, -0.056630, -0.030533, 0.018744, 0.006695, -0.035031, -0.007957, -0.049301, 0.017267, -0.000318, -0.050830, 0.033209, -0.074456, -0.052838, -0.050994, 0.018636, -0.005432, -0.035187, -0.044670, -0.039541, 0.007531, 0.032323, 0.018534, -0.009633, 0.012525, 0.007734, -0.049791, 0.035143, 0.031386, 0.008856, -0.066164, 0.028242, -0.015125, -0.016256, -0.047492, -0.021456, -0.029556, 0.008006, 0.005109, 0.020916, 0.020553, 0.031318, -0.026890, -0.031209, -0.058965, -0.000170, 0.006388, -0.040670, 0.028584, 0.024219, -0.047044, -0.020863, 0.015618, -0.018356, 0.002068, 0.032354, -0.023148, -0.088021, -0.049640, 0.014542, 0.026539, -0.000413, 0.032514, -0.058576, -0.036074, 0.032853, -0.096043, -0.022986, -0.049729, -0.063936, -0.041957, -0.047034, 0.050761, 0.024478, 0.031623, -0.052004, -0.046675, -0.026459, -0.019222, 0.041713, -0.047885, -0.028339, -0.023322, 0.016872, 0.024502, -0.065155, 0.033302, -0.081054, 0.016041, -0.065229, 0.046228, -0.030868};
